{"learner":{"attributes":{"scikit_learn":"{\"_estimator_type\": \"classifier\"}"},"feature_names":[],"feature_types":[],"gradient_booster":{"model":{"cats":{"enc":[],"feature_segments":[],"sorted_idx":[]},"gbtree_model_param":{"num_parallel_tree":"1","num_trees":"200"},"iteration_indptr":[0,1,2,3,4,5,6,7,8,9,10,11,12,13,14,15,16,17,18,19,20,21,22,23,24,25,26,27,28,29,30,31,32,33,34,35,36,37,38,39,40,41,42,43,44,45,46,47,48,49,50,51,52,53,54,55,56,57,58,59,60,61,62,63,64,65,66,67,68,69,70,71,72,73,74,75,76,77,78,79,80,81,82,83,84,85,86,87,88,89,90,91,92,93,94,95,96,97,98,99,100,101,102,103,104,105,106,107,108,109,110,111,112,113,114,115,116,117,118,119,120,121,122,123,124,125,126,127,128,129,130,131,132,133,134,135,136,137,138,139,140,141,142,143,144,145,146,147,148,149,150,151,152,153,154,155,156,157,158,159,160,161,162,163,164,165,166,167,168,169,170,171,172,173,174,175,176,177,178,179,180,181,182,183,184,185,186,187,188,189,190,191,192,193,194,195,196,197,198,199,200],"tree_info":[0,0,0,0,0,0,0,0,0,0,0,0,0,0,0,0,0,0,0,0,0,0,0,0,0,0,0,0,0,0,0,0,0,0,0,0,0,0,0,0,0,0,0,0,0,0,0,0,0,0,0,0,0,0,0,0,0,0,0,0,0,0,0,0,0,0,0,0,0,0,0,0,0,0,0,0,0,0,0,0,0,0,0,0,0,0,0,0,0,0,0,0,0,0,0,0,0,0,0,0,0,0,0,0,0,0,0,0,0,0,0,0,0,0,0,0,0,0,0,0,0,0,0,0,0,0,0,0,0,0,0,0,0,0,0,0,0,0,0,0,0,0,0,0,0,0,0,0,0,0,0,0,0,0,0,0,0,0,0,0,0,0,0,0,0,0,0,0,0,0,0,0,0,0,0,0,0,0,0,0,0,0,0,0,0,0,0,0,0,0,0,0,0,0,0,0,0,0,0,0],"trees":[{"base_weights":[4.333644E-9,-1.6346447E-1,3.7910947E-1,-2.617219E-1,2.053472E0,-3.6875734E-1,2.0519102E0,2.3214428E0,1.8956463E0,-4.5659587E-1,1.4407216E0,2.080646E0,1.2610452E0,2.035289E0,2.4733067E0,1.8301173E0,2.2252676E0,-5.442586E-1,1.3833663E0,1.6086637E0,1.2196015E0,-3.4575266E-1,2.0870347E0,-3.0144092E-1,1.370932E0,1.5219436E0,2.1826394E0,2.500439E0,1.5804772E0,2.0541334E0,1.6885458E0,2.106151E0,3.2761213E-1,-1.1105279E-1,-3.5993576E-2,1.5510774E-1,9.941789E-2,1.4787309E-1,2.0480613E-1,3.202987E-2,1.2580574E-1,-8.3886504E-2,2.7582923E-2,2.0353878E-1,2.3329078E-1,3.967392E-2,-8.3886504E-2,-4.021754E-2,1.4366733E-1,1.8183906E-1,7.046071E-2,1.7534925E-2,2.2281487E-1,2.4206601E-1,2.865702E-1,4.1672643E-2,2.0350738E-1,8.862964E-2,2.0835912E-1,1.2029459E-1,1.7563422E-1,2.432051E-1,1.9230287E-1],"categories":[],"categories_nodes":[],"categories_segments":[],"categories_sizes":[],"default_left":[0,0,0,0,0,0,0,0,0,0,0,0,0,0,0,0,0,0,0,0,0,0,0,0,0,0,0,0,0,0,0,0,0,0,0,0,0,0,0,0,0,0,0,0,0,0,0,0,0,0,0,0,0,0,0,0,0,0,0,0,0,0,0],"id":0,"left_children":[1,3,-1,5,7,9,11,13,15,17,19,21,23,25,27,29,31,33,35,37,39,41,43,45,47,49,51,53,55,57,59,61,-1,-1,-1,-1,-1,-1,-1,-1,-1,-1,-1,-1,-1,-1,-1,-1,-1,-1,-1,-1,-1,-1,-1,-1,-1,-1,-1,-1,-1,-1,-1],"loss_changes":[2.1258076E4,7.163971E3,0E0,7.7991016E3,5.463037E1,4.7846514E3,2.9024902E1,1.7255127E1,1.5018799E1,4.6309653E3,4.9793945E1,2.152832E1,9.232246E0,1.05564575E1,4.0527344E0,2.0093018E1,1.0867615E1,2.8596729E3,8.3686035E1,4.2015503E1,2.0545593E1,1.5747061E0,1.225293E1,1.9067478E0,6.192688E0,9.433762E0,1.2421387E1,2.357788E0,5.7455273E0,7.8916016E0,1.3059326E1,3.098877E0,0E0,0E0,0E0,0E0,0E0,0E0,0E0,0E0,0E0,0E0,0E0,0E0,0E0,0E0,0E0,0E0,0E0,0E0,0E0,0E0,0E0,0E0,0E0,0E0,0E0,0E0,0E0,0E0,0E0,0E0,0E0],"parents":[2147483647,0,0,1,1,3,3,4,4,5,5,6,6,7,7,8,8,9,9,10,10,11,11,12,12,13,13,14,14,15,15,16,16,17,17,18,18,19,19,20,20,21,21,22,22,23,23,24,24,25,25,26,26,27,27,28,28,29,29,30,30,31,31],"right_children":[2,4,-1,6,8,10,12,14,16,18,20,22,24,26,28,30,32,34,36,38,40,42,44,46,48,50,52,54,56,58,60,62,-1,-1,-1,-1,-1,-1,-1,-1,-1,-1,-1,-1,-1,-1,-1,-1,-1,-1,-1,-1,-1,-1,-1,-1,-1,-1,-1,-1,-1,-1,-1],"split_conditions":[4.81745E0,4.8572316E0,3.7910947E-1,4.86304E0,-9.404118E-2,4.8609877E0,1.1362308E0,4.0097758E-1,8.111108E-1,5.0288525E0,5.3453547E-1,-1.178489E0,-9.993998E-1,3.248506E-1,1.7073094E0,-1.8499369E-2,-4.6753675E-1,-5.46287E-1,2.6020654E-2,7.4188507E-1,-4.272052E-1,2.4704611E-1,8.491766E-1,-6.651466E-2,-8.47729E-1,-2.7401826E-1,-1.3431648E0,9.5592237E-1,1.8248332E0,-8.417177E-1,1.8908945E-1,-3.125821E-2,3.2761213E-1,-1.1105279E-1,-3.5993576E-2,1.5510774E-1,9.941789E-2,1.4787309E-1,2.0480613E-1,3.202987E-2,1.2580574E-1,-8.3886504E-2,2.7582923E-2,2.0353878E-1,2.3329078E-1,3.967392E-2,-8.3886504E-2,-4.021754E-2,1.4366733E-1,1.8183906E-1,7.046071E-2,1.7534925E-2,2.2281487E-1,2.4206601E-1,2.865702E-1,4.1672643E-2,2.0350738E-1,8.862964E-2,2.0835912E-1,1.2029459E-1,1.7563422E-1,2.432051E-1,1.9230287E-1],"split_indices":[26,28,0,31,7,21,2,6,6,18,7,2,0,1,8,3,4,6,2,6,6,5,6,9,5,7,8,9,8,6,6,9,0,0,0,0,0,0,0,0,0,0,0,0,0,0,0,0,0,0,0,0,0,0,0,0,0,0,0,0,0,0,0],"split_type":[0,0,0,0,0,0,0,0,0,0,0,0,0,0,0,0,0,0,0,0,0,0,0,0,0,0,0,0,0,0,0,0,0,0,0,0,0,0,0,0,0,0,0,0,0,0,0,0,0,0,0,0,0,0,0,0,0,0,0,0,0,0,0],"sum_hessian":[3.4301305E4,3.288435E4,1.416951E3,3.1489576E4,1.394776E3,3.0097996E4,1.3915813E3,5.1190646E2,8.828695E2,2.8705287E4,1.3927089E3,1.3412175E3,5.036378E1,1.8247473E2,3.2943173E2,7.4192615E2,1.409434E2,2.7400527E4,1.3047601E3,7.8796765E2,6.047412E2,3.3826418E0,1.3378348E3,3.1947174E0,4.7169064E1,4.3222645E1,1.3925209E2,3.1796832E2,1.1463397E1,2.8207474E2,4.5985138E2,1.2929208E2,1.1651322E1,6.7275107E3,2.0673016E4,9.0974274E2,3.950174E2,6.115065E2,1.7646115E2,2.518189E1,5.795593E2,1.6913209E0,1.6913209E0,1.113265E3,2.2456984E2,1.5033964E0,1.6913209E0,1.5033964E0,4.5665665E1,3.0819626E1,1.240302E1,3.1947174E0,1.3605737E2,2.672287E2,5.0739628E1,3.758491E0,7.7049065E0,7.7049065E0,2.7436984E2,5.8632458E1,4.012189E2,4.20951E1,8.719699E1],"tree_param":{"num_deleted":"0","num_feature":"55","num_nodes":"63","size_leaf_vector":"1"}},{"base_weights":[-3.3431498E-3,-1.5047242E-1,2.8782601E0,-9.041998E-1,8.445424E-2,6.4552166E-2,2.8793526E-1,-9.6277654E-1,1.5752078E0,-1.6726816E-2,1.6863784E0,-1.0037769E0,7.4130535E-1,1.4070321E0,1.9584137E0,-1.2106914E-1,1.683699E0,1.9172332E0,1.5799574E0,-1.0220095E0,1.373551E0,9.013097E-1,3.2479498E-1,4.325384E-2,1.4602636E0,2.051665E0,5.859563E-1,-2.1472509E-1,1.2277949E0,1.7696177E0,1.520609E0,1.6579922E0,2.024949E0,2.1133912E0,1.5464025E0,-1.13545515E-1,-7.083341E-2,1.471713E-1,-4.623078E-2,2.4435475E-2,1.0683608E-1,-2.845904E-2,5.1970907E-2,-7.571306E-2,1.0254607E-1,1.6176082E-1,9.164687E-2,1.705633E-1,2.4219711E-1,1.1619586E-1,-4.2425912E-2,-3.1198714E-2,1.169515E-1,1.4682946E-1,1.1207517E-1,-7.157073E-2,1.7736539E-1,1.5667166E-1,9.430349E-2,1.7228743E-1,6.676943E-2,8.132337E-2,2.046676E-1,8.913434E-4,2.166513E-1,1.4855134E-1,1.8551145E-1],"categories":[],"categories_nodes":[],"categories_segments":[],"categories_sizes":[],"default_left":[0,0,0,0,0,0,0,0,0,0,0,0,0,0,0,0,0,0,0,0,0,0,0,0,0,0,0,0,0,0,0,0,0,0,0,0,0,0,0,0,0,0,0,0,0,0,0,0,0,0,0,0,0,0,0,0,0,0,0,0,0,0,0,0,0,0,0],"id":1,"left_children":[1,3,5,7,9,-1,-1,11,13,15,17,19,21,23,25,27,29,31,33,35,37,39,41,43,45,47,49,51,53,55,57,59,61,63,65,-1,-1,-1,-1,-1,-1,-1,-1,-1,-1,-1,-1,-1,-1,-1,-1,-1,-1,-1,-1,-1,-1,-1,-1,-1,-1,-1,-1,-1,-1,-1,-1],"loss_changes":[1.4524785E4,5.7716733E3,2.2001953E0,1.1264204E3,4.027908E3,0E0,0E0,5.294512E2,8.789459E0,4.1475703E3,3.3242188E1,3.217168E2,1.1594162E1,9.233063E0,5.4642487E0,2.7826182E3,1.6246826E1,9.52002E0,1.4921631E1,2.6018408E2,1.0893127E1,1.3819145E1,6.2134705E0,5.3682923E0,9.060089E0,2.0675812E0,3.2358246E0,2.773225E3,3.51709E1,1.00876465E1,1.1130249E1,7.9018555E0,6.7938232E0,6.399109E0,1.5285645E1,0E0,0E0,0E0,0E0,0E0,0E0,0E0,0E0,0E0,0E0,0E0,0E0,0E0,0E0,0E0,0E0,0E0,0E0,0E0,0E0,0E0,0E0,0E0,0E0,0E0,0E0,0E0,0E0,0E0,0E0,0E0,0E0],"parents":[2147483647,0,0,1,1,2,2,3,3,4,4,7,7,8,8,9,9,10,10,11,11,12,12,13,13,14,14,15,15,16,16,17,17,18,18,19,19,20,20,21,21,22,22,23,23,24,24,25,25,26,26,27,27,28,28,29,29,30,30,31,31,32,32,33,33,34,34],"right_children":[2,4,6,8,10,-1,-1,12,14,16,18,20,22,24,26,28,30,32,34,36,38,40,42,44,46,48,50,52,54,56,58,60,62,64,66,-1,-1,-1,-1,-1,-1,-1,-1,-1,-1,-1,-1,-1,-1,-1,-1,-1,-1,-1,-1,-1,-1,-1,-1,-1,-1,-1,-1,-1,-1,-1,-1],"split_conditions":[4.81745E0,-3.748227E-1,-1.4458948E0,4.86304E0,4.8572316E0,6.4552166E-2,2.8793526E-1,4.78086E0,9.838739E-1,4.86304E0,-2.0632538E-1,4.8572316E0,1.2753001E-1,-8.534292E-1,2.6127932E0,4.8609877E0,-4.6753675E-1,3.8362902E-1,-5.7497996E-1,-7.3072064E-1,2.2913265E0,-5.945442E-1,2.5634688E-1,2.3245414E-1,5.1886666E-1,-3.407315E-1,-1.3002399E0,5.0288525E0,-9.404118E-2,-1.1384215E0,9.9226207E-1,-1.6467626E-1,-8.228131E-1,-1.5342062E0,8.427761E-1,-1.13545515E-1,-7.083341E-2,1.471713E-1,-4.623078E-2,2.4435475E-2,1.0683608E-1,-2.845904E-2,5.1970907E-2,-7.571306E-2,1.0254607E-1,1.6176082E-1,9.164687E-2,1.705633E-1,2.4219711E-1,1.1619586E-1,-4.2425912E-2,-3.1198714E-2,1.169515E-1,1.4682946E-1,1.1207517E-1,-7.157073E-2,1.7736539E-1,1.5667166E-1,9.430349E-2,1.7228743E-1,6.676943E-2,8.132337E-2,2.046676E-1,8.913434E-4,2.166513E-1,1.4855134E-1,1.8551145E-1],"split_indices":[26,6,2,31,28,0,0,22,0,31,7,28,2,2,4,21,4,6,3,6,7,2,2,1,2,9,1,18,7,2,2,4,5,8,6,0,0,0,0,0,0,0,0,0,0,0,0,0,0,0,0,0,0,0,0,0,0,0,0,0,0,0,0,0,0,0,0],"split_type":[0,0,0,0,0,0,0,0,0,0,0,0,0,0,0,0,0,0,0,0,0,0,0,0,0,0,0,0,0,0,0,0,0,0,0,0,0,0,0,0,0,0,0,0,0,0,0,0,0,0,0,0,0,0,0,0,0,0,0,0,0,0,0,0,0,0,0],"sum_hessian":[3.4257117E4,3.2593883E4,1.6632349E3,7.74437E3,2.4849514E4,1.1029409E0,1.662132E3,7.5662275E3,1.7814273E2,2.337414E4,1.4753727E3,7.388862E3,1.7736568E2,1.2705463E2,5.1088104E1,2.2023645E4,1.3504965E3,4.6015692E2,1.0152157E3,7.333191E3,5.5670918E1,1.2729918E2,5.006651E1,4.841029E0,1.222136E2,4.737438E1,3.7137263E0,2.0594541E4,1.4291042E3,8.780656E2,4.7243082E2,1.3988542E2,3.202715E2,5.6413147E1,9.5880255E2,5.3835337E3,1.9496573E3,5.3033607E1,2.6373117E0,2.6306698E1,1.0099248E2,1.2021631E1,3.8044876E1,2.793668E0,2.0473611E0,9.325579E1,2.8957804E1,2.7387842E1,1.9986536E1,2.2694993E0,1.4442269E0,1.9243213E4,1.3513276E3,4.3624713E2,9.9285706E2,1.1378045E0,8.769278E2,4.35919E2,3.6511818E1,1.3058974E2,9.29569E0,6.318463E0,3.1395303E2,1.4176854E0,5.499546E1,8.057014E2,1.5310112E2],"tree_param":{"num_deleted":"0","num_feature":"55","num_nodes":"67","size_leaf_vector":"1"}},{"base_weights":[-5.1116664E-3,-1.3849403E-1,2.3800902E0,6.7812495E-2,-8.8824564E-1,6.045006E-2,2.380865E-1,-2.3719758E-2,1.4149891E0,-9.533121E-1,8.6201113E-1,-1.21936515E-1,1.3958666E0,1.5826634E0,1.3146195E0,-9.910501E-1,1.5777818E0,1.5471095E0,6.246023E-1,-2.0840475E-1,1.0357212E0,1.4250038E0,9.9797124E-1,1.5115582E0,1.8505706E0,1.4494039E0,1.2176483E0,-1.0387316E0,-2.0659399E-1,1.6273098E0,-6.384439E-2,9.242619E-1,1.882354E0,5.4960674E-1,1.426172E0,-2.9912382E-2,9.975531E-2,9.450542E-2,1.2605916E-1,1.4428858E-1,8.585585E-2,5.910454E-2,1.1858951E-1,1.521958E-1,3.6989145E-2,1.8753687E-1,1.20243095E-2,1.1954204E-1,1.5052778E-1,1.14314675E-1,1.5347789E-1,-1.0590748E-1,9.48616E-2,-9.419168E-2,-1.6229818E-2,1.6633515E-1,-2.0643964E-2,8.818553E-2,-9.014628E-2,-6.806352E-2,1.1484583E-1,2.321314E-1,6.399121E-2,2.7899638E-2,7.47528E-2,1.6807745E-1,-7.518401E-2],"categories":[],"categories_nodes":[],"categories_segments":[],"categories_sizes":[],"default_left":[0,0,0,0,0,0,0,0,0,0,0,0,0,0,0,0,0,0,0,0,0,0,0,0,0,0,0,0,0,0,0,0,0,0,0,0,0,0,0,0,0,0,0,0,0,0,0,0,0,0,0,0,0,0,0,0,0,0,0,0,0,0,0,0,0,0,0],"id":2,"left_children":[1,3,5,7,9,-1,-1,11,13,15,17,19,21,23,25,27,29,31,33,35,37,39,41,43,45,47,49,51,53,55,57,59,61,63,65,-1,-1,-1,-1,-1,-1,-1,-1,-1,-1,-1,-1,-1,-1,-1,-1,-1,-1,-1,-1,-1,-1,-1,-1,-1,-1,-1,-1,-1,-1,-1,-1],"loss_changes":[1.0828458E4,4.985938E3,1.0400391E0,3.1171929E3,7.9296387E2,0E0,0E0,3.3006523E3,2.498584E1,6.421987E2,3.966971E1,2.2165293E3,1.6337646E1,8.581421E0,1.1462036E1,2.4698877E2,8.146332E0,1.1544373E1,1.0470749E1,2.2543218E3,3.0185913E1,1.3195557E1,7.547188E0,5.1064453E0,4.958954E0,4.1348267E0,1.2298584E1,2.5287988E2,1.2222538E1,6.69191E0,3.8519146E0,9.49839E0,2.0544678E1,9.0480995E0,9.798315E0,0E0,0E0,0E0,0E0,0E0,0E0,0E0,0E0,0E0,0E0,0E0,0E0,0E0,0E0,0E0,0E0,0E0,0E0,0E0,0E0,0E0,0E0,0E0,0E0,0E0,0E0,0E0,0E0,0E0,0E0,0E0,0E0],"parents":[2147483647,0,0,1,1,2,2,3,3,4,4,7,7,8,8,9,9,10,10,11,11,12,12,13,13,14,14,15,15,16,16,17,17,18,18,19,19,20,20,21,21,22,22,23,23,24,24,25,25,26,26,27,27,28,28,29,29,30,30,31,31,32,32,33,33,34,34],"right_children":[2,4,6,8,10,-1,-1,12,14,16,18,20,22,24,26,28,30,32,34,36,38,40,42,44,46,48,50,52,54,56,58,60,62,64,66,-1,-1,-1,-1,-1,-1,-1,-1,-1,-1,-1,-1,-1,-1,-1,-1,-1,-1,-1,-1,-1,-1,-1,-1,-1,-1,-1,-1,-1,-1,-1,-1],"split_conditions":[4.81745E0,1.1176535E0,-1.4458948E0,4.8572316E0,4.78086E0,6.045006E-2,2.380865E-1,4.86304E0,-9.404118E-2,4.86304E0,-4.6909633E-1,4.8609877E0,3.0051568E-1,8.2323796E-1,-4.6992227E-1,4.8541646E0,5.1264834E-1,-3.7627542E-1,2.9453213E0,5.0288525E0,6.6811156E-1,1.1362308E0,-4.787086E-1,1.2554629E0,-1.0478608E-1,-9.3742853E-1,8.111108E-1,4.8575726E0,-8.907727E-1,9.527236E0,-5.0551647E-1,-1.7646971E0,-9.280573E-1,-4.7387338E-1,-1.2923516E-1,-2.9912382E-2,9.975531E-2,9.450542E-2,1.2605916E-1,1.4428858E-1,8.585585E-2,5.910454E-2,1.1858951E-1,1.521958E-1,3.6989145E-2,1.8753687E-1,1.20243095E-2,1.1954204E-1,1.5052778E-1,1.14314675E-1,1.5347789E-1,-1.0590748E-1,9.48616E-2,-9.419168E-2,-1.6229818E-2,1.6633515E-1,-2.0643964E-2,8.818553E-2,-9.014628E-2,-6.806352E-2,1.1484583E-1,2.321314E-1,6.399121E-2,2.7899638E-2,7.47528E-2,1.6807745E-1,-7.518401E-2],"split_indices":[26,0,2,28,22,0,0,31,7,31,4,21,4,6,5,20,6,1,40,18,6,2,7,2,7,0,6,11,2,51,5,3,3,7,5,0,0,0,0,0,0,0,0,0,0,0,0,0,0,0,0,0,0,0,0,0,0,0,0,0,0,0,0,0,0,0,0],"split_type":[0,0,0,0,0,0,0,0,0,0,0,0,0,0,0,0,0,0,0,0,0,0,0,0,0,0,0,0,0,0,0,0,0,0,0,0,0,0,0,0,0,0,0,0,0,0,0,0,0,0,0,0,0,0,0,0,0,0,0,0,0,0,0,0,0,0,0],"sum_hessian":[3.403432E4,3.2232781E4,1.8015406E3,2.5278025E4,6.9547563E3,1.12659E0,1.8004141E3,2.3670729E4,1.607296E3,6.705917E3,2.4883966E2,2.2139855E4,1.5308734E3,5.96325E2,1.01097107E3,6.6080015E3,9.791546E1,6.2619602E1,1.8622006E2,2.0601871E4,1.5379834E3,1.4240142E3,1.06859184E2,4.764995E2,1.19825516E2,4.1717557E2,5.937955E2,6.229058E3,3.789434E2,9.505633E1,2.8591323E0,2.322573E1,3.939387E1,1.7182922E2,1.4390833E1,1.9161207E4,1.440664E3,1.0997643E3,4.3821906E2,1.3789354E3,4.5078842E1,3.5068287E1,7.17909E1,4.71868E2,4.631496E0,1.1804988E2,1.7756392E0,7.926383E1,3.3791174E2,4.8456448E2,1.0923101E2,6.1664033E3,6.2654404E1,2.0379177E1,3.585642E2,9.331517E1,1.7411553E0,1.3181187E0,1.5410135E0,2.5972888E0,2.0628443E1,2.8467747E1,1.0926125E1,7.360352E1,9.82257E1,1.3089062E1,1.3017707E0],"tree_param":{"num_deleted":"0","num_feature":"55","num_nodes":"67","size_leaf_vector":"1"}},{"base_weights":[-6.0677617E-3,-1.2743889E-1,2.0611117E0,-9.097082E-1,5.210495E-2,5.6667596E-2,2.0617263E-1,-9.56317E-1,1.0998349E0,-2.8335247E-2,1.2214202E0,-9.9186826E-1,5.809962E-1,1.137226E0,-2.7493736E-1,-1.1464722E-1,1.2183444E0,1.3936322E0,1.1528033E0,-1.0351564E0,-1.4439152E-1,2.8096893E-1,7.94844E-1,5.911131E-1,1.2498598E0,-7.449614E-2,5.594502E-2,-1.9174442E-1,9.0996057E-1,1.5284309E0,1.1893524E0,1.3422492E0,1.8097764E0,1.0977943E0,1.346804E0,-1.0493666E-1,1.0044589E-1,-2.513094E-2,5.3837445E-2,8.082774E-2,9.492299E-3,8.8199876E-2,-2.3848858E-2,1.1906407E-1,-3.7371335E-3,-5.6488663E-2,1.2822965E-1,-2.7273906E-2,8.715535E-2,1.1024654E-1,8.232574E-2,-6.608298E-2,1.5717201E-1,1.3386358E-1,1.1395093E-1,1.361511E-1,4.6857987E-2,-4.8252366E-2,1.8865995E-1,1.05722725E-1,1.3823698E-1,1.4344901E-1,9.590561E-2],"categories":[],"categories_nodes":[],"categories_segments":[],"categories_sizes":[],"default_left":[0,0,0,0,0,0,0,0,0,0,0,0,0,0,0,0,0,0,0,0,0,0,0,0,0,0,0,0,0,0,0,0,0,0,0,0,0,0,0,0,0,0,0,0,0,0,0,0,0,0,0,0,0,0,0,0,0,0,0,0,0,0,0],"id":3,"left_children":[1,3,5,7,9,-1,-1,11,13,15,17,19,21,23,25,27,29,31,33,35,37,39,41,43,45,-1,-1,47,49,51,53,55,57,59,61,-1,-1,-1,-1,-1,-1,-1,-1,-1,-1,-1,-1,-1,-1,-1,-1,-1,-1,-1,-1,-1,-1,-1,-1,-1,-1,-1,-1],"loss_changes":[8.456423E3,4.4714204E3,5.4833984E-1,5.5767773E2,2.4356025E3,0E0,0E0,3.180415E2,7.2613983E0,2.6071667E3,1.8087646E1,2.0814453E2,8.240952E0,7.3679504E0,2.136309E0,1.7902068E3,1.2286377E1,7.6224365E0,1.130188E1,1.5761426E2,2.0362352E1,5.460898E0,7.0979004E0,9.250216E0,7.103012E0,0E0,0E0,1.8152733E3,2.5562744E1,1.3419098E1,9.183472E0,6.468506E0,9.502777E0,9.372192E0,7.469452E0,0E0,0E0,0E0,0E0,0E0,0E0,0E0,0E0,0E0,0E0,0E0,0E0,0E0,0E0,0E0,0E0,0E0,0E0,0E0,0E0,0E0,0E0,0E0,0E0,0E0,0E0,0E0,0E0],"parents":[2147483647,0,0,1,1,2,2,3,3,4,4,7,7,8,8,9,9,10,10,11,11,12,12,13,13,14,14,15,15,16,16,17,17,18,18,19,19,20,20,21,21,22,22,23,23,24,24,27,27,28,28,29,29,30,30,31,31,32,32,33,33,34,34],"right_children":[2,4,6,8,10,-1,-1,12,14,16,18,20,22,24,26,28,30,32,34,36,38,40,42,44,46,-1,-1,48,50,52,54,56,58,60,62,-1,-1,-1,-1,-1,-1,-1,-1,-1,-1,-1,-1,-1,-1,-1,-1,-1,-1,-1,-1,-1,-1,-1,-1,-1,-1,-1,-1],"split_conditions":[4.81745E0,-5.46287E-1,-1.4458948E0,4.86304E0,4.8572316E0,5.6667596E-2,2.0617263E-1,4.78086E0,-3.4944236E-2,4.86304E0,-2.4876773E-1,4.8541646E0,-2.9474914E-1,-4.6909633E-1,3.357548E-1,4.8609877E0,-5.693477E-1,1.109813E0,-4.6908057E-1,4.8572316E0,-6.594115E-1,-5.9297645E-1,6.185204E-1,7.4836664E-2,-5.1900196E-1,-7.449614E-2,5.594502E-2,5.0288525E0,-9.404118E-2,-1.271784E0,-6.10265E-1,1.7073094E0,-8.47729E-1,1.7107974E0,4.9620536E-1,-1.0493666E-1,1.0044589E-1,-2.513094E-2,5.3837445E-2,8.082774E-2,9.492299E-3,8.8199876E-2,-2.3848858E-2,1.1906407E-1,-3.7371335E-3,-5.6488663E-2,1.2822965E-1,-2.7273906E-2,8.715535E-2,1.1024654E-1,8.232574E-2,-6.608298E-2,1.5717201E-1,1.3386358E-1,1.1395093E-1,1.361511E-1,4.6857987E-2,-4.8252366E-2,1.8865995E-1,1.05722725E-1,1.3823698E-1,1.4344901E-1,9.590561E-2],"split_indices":[26,6,2,31,28,0,0,22,7,31,7,20,1,4,7,21,2,3,4,28,3,5,2,1,7,0,0,18,7,2,5,8,5,1,5,0,0,0,0,0,0,0,0,0,0,0,0,0,0,0,0,0,0,0,0,0,0,0,0,0,0,0,0],"split_type":[0,0,0,0,0,0,0,0,0,0,0,0,0,0,0,0,0,0,0,0,0,0,0,0,0,0,0,0,0,0,0,0,0,0,0,0,0,0,0,0,0,0,0,0,0,0,0,0,0,0,0,0,0,0,0,0,0,0,0,0,0,0,0],"sum_hessian":[3.370286E4,3.1834676E4,1.8681835E3,5.9418916E3,2.5892785E4,1.1472423E0,1.8670361E3,5.8077134E3,1.3417848E2,2.4227115E4,1.6656697E3,5.676789E3,1.3092416E2,1.3079395E2,3.3845432E0,2.2659244E4,1.5678702E3,4.6908008E2,1.1965897E3,5.4007056E3,2.7608344E2,5.5446667E1,7.547749E1,2.3431717E1,1.0736222E2,2.2335334E0,1.1510098E0,2.1074309E4,1.5849355E3,1.296346E2,1.4382356E3,4.2128748E2,4.7792587E1,9.374378E2,2.5915186E2,5.363821E3,3.688481E1,2.3924995E2,3.683347E1,1.358847E1,4.1858196E1,6.974169E1,5.7357984E0,1.1534344E1,1.1897373E1,1.5970356E0,1.0576519E2,1.9583332E4,1.4909783E3,4.8853595E2,1.0963997E3,2.2370145E0,1.2739759E2,3.5353052E2,1.0847051E3,4.1165335E2,9.634131E0,1.378516E0,4.6414074E1,8.2460333E2,1.1283448E2,2.0915387E2,4.9997982E1],"tree_param":{"num_deleted":"0","num_feature":"55","num_nodes":"63","size_leaf_vector":"1"}},{"base_weights":[-6.5255226E-3,-1.17236644E-1,1.837551E0,-8.7021506E-1,4.6555668E-2,1.8625441E0,1.7608367E0,-9.165875E-1,9.6167594E-1,1.0795974E-1,-1.2046884E0,5.3171992E-2,1.8632698E-1,3.896839E-2,1.7643079E0,-9.526074E-1,5.0884736E-1,1.1962755E0,7.2644365E-1,1.6817088E-1,-1.0489616E0,-1.2443129E0,-1.0555868E0,1.1100024E0,1.7716403E-1,-9.969663E-1,-1.3123308E-1,1.8019779E-1,6.526323E-1,1.260113E0,-3.1019354E-1,1.1667899E-1,8.917487E-1,2.3203182E-1,-1.0527785E0,-8.566254E-1,-1.1169435E0,-1.2785333E-1,-1.1942899E-1,-3.9542517E-1,-1.0877956E0,1.5863162E-1,2.3709638E-1,-1.0128558E-1,1.0401169E-1,-1.8079912E-2,1.14208855E-1,3.4699142E-2,-6.3541435E-2,1.1945083E-1,5.3775646E-2,1.3185115E-1,6.958565E-3,3.0746007E-2,-8.539854E-2,6.0126614E-2,-4.4056978E-2,1.1323718E-1,2.4560234E-2,2.8902372E-2,-1.2750745E-1,-1.02432325E-1,-1.1929341E-1,-7.615051E-2,-1.08602285E-1,-1.1221217E-1,-7.30374E-2,-6.998552E-2,1.3176827E-1,-2.5834383E-3,-1.1014785E-1,8.981736E-2,-6.762625E-2],"categories":[],"categories_nodes":[],"categories_segments":[],"categories_sizes":[],"default_left":[0,0,0,0,0,0,0,0,0,0,0,0,0,0,0,0,0,0,0,0,0,0,0,0,0,0,0,0,0,0,0,0,0,0,0,0,0,0,0,0,0,0,0,0,0,0,0,0,0,0,0,0,0,0,0,0,0,0,0,0,0,0,0,0,0,0,0,0,0,0,0,0,0],"id":4,"left_children":[1,3,5,7,9,11,13,15,17,19,21,-1,-1,-1,23,25,27,29,31,33,35,37,39,41,-1,43,45,47,49,51,53,55,57,59,61,63,65,-1,-1,67,69,-1,71,-1,-1,-1,-1,-1,-1,-1,-1,-1,-1,-1,-1,-1,-1,-1,-1,-1,-1,-1,-1,-1,-1,-1,-1,-1,-1,-1,-1,-1,-1],"loss_changes":[6.7978003E3,3.8739807E3,3.3642578E-1,4.7761182E2,1.9823593E3,3.6621094E-1,1.6052246E0,2.8153662E2,6.8040314E0,1.7133657E3,5.817383E0,0E0,0E0,0E0,3.3728027E-1,1.9440967E2,6.2885017E0,6.9369507E0,7.15065E0,1.8230461E3,1.4953003E1,9.5825195E-2,5.0983276E0,2.949891E0,0E0,1.6501807E2,1.754576E1,6.021249E0,5.2043076E0,4.4620285E0,1.4615167E0,4.7207084E0,8.502087E0,1.9086318E3,3.4129639E0,6.200302E0,9.733887E-1,0E0,0E0,8.049498E0,3.5655518E0,0E0,3.0224695E0,0E0,0E0,0E0,0E0,0E0,0E0,0E0,0E0,0E0,0E0,0E0,0E0,0E0,0E0,0E0,0E0,0E0,0E0,0E0,0E0,0E0,0E0,0E0,0E0,0E0,0E0,0E0,0E0,0E0,0E0],"parents":[2147483647,0,0,1,1,2,2,3,3,4,4,5,5,6,6,7,7,8,8,9,9,10,10,14,14,15,15,16,16,17,17,18,18,19,19,20,20,21,21,22,22,23,23,25,25,26,26,27,27,28,28,29,29,30,30,31,31,32,32,33,33,34,34,35,35,36,36,39,39,40,40,42,42],"right_children":[2,4,6,8,10,12,14,16,18,20,22,-1,-1,-1,24,26,28,30,32,34,36,38,40,42,-1,44,46,48,50,52,54,56,58,60,62,64,66,-1,-1,68,70,-1,72,-1,-1,-1,-1,-1,-1,-1,-1,-1,-1,-1,-1,-1,-1,-1,-1,-1,-1,-1,-1,-1,-1,-1,-1,-1,-1,-1,-1,-1,-1],"split_conditions":[4.81745E0,-5.46287E-1,7.7208686E-1,4.86304E0,4.968897E0,-1.4458948E0,-1.434565E0,4.78086E0,-5.0551647E-1,4.8258014E0,-3.116508E-2,5.3171992E-2,1.8632698E-1,3.896839E-2,-1.2064732E0,4.8541646E0,-1.06153E0,-5.6717265E-1,-4.343281E-1,5.012365E0,-4.5863652E-1,-1.0452116E-1,-5.0234735E-1,1.1520288E0,1.7716403E-1,4.8131237E0,-4.152615E-2,-3.2754558E-1,-4.6909875E-1,1.1362308E0,-4.679637E-1,-1.008651E0,-4.0342918E-1,4.7568994E0,-4.5422405E-1,1.6920885E-1,1.8575447E0,-1.2785333E-1,-1.1942899E-1,2.4182909E0,-9.1586643E-1,1.5863162E-1,1.4707786E-2,-1.0128558E-1,1.0401169E-1,-1.8079912E-2,1.14208855E-1,3.4699142E-2,-6.3541435E-2,1.1945083E-1,5.3775646E-2,1.3185115E-1,6.958565E-3,3.0746007E-2,-8.539854E-2,6.0126614E-2,-4.4056978E-2,1.1323718E-1,2.4560234E-2,2.8902372E-2,-1.2750745E-1,-1.02432325E-1,-1.1929341E-1,-7.615051E-2,-1.08602285E-1,-1.1221217E-1,-7.30374E-2,-6.998552E-2,1.3176827E-1,-2.5834383E-3,-1.1014785E-1,8.981736E-2,-6.762625E-2],"split_indices":[26,6,3,31,32,2,8,22,5,19,2,0,0,0,9,20,9,6,5,29,4,1,7,3,0,13,3,5,4,2,7,3,4,16,4,7,1,0,0,5,5,0,2,0,0,0,0,0,0,0,0,0,0,0,0,0,0,0,0,0,0,0,0,0,0,0,0,0,0,0,0,0,0],"split_type":[0,0,0,0,0,0,0,0,0,0,0,0,0,0,0,0,0,0,0,0,0,0,0,0,0,0,0,0,0,0,0,0,0,0,0,0,0,0,0,0,0,0,0,0,0,0,0,0,0,0,0,0,0,0,0,0,0,0,0,0,0,0,0,0,0,0,0,0,0,0,0,0,0],"sum_hessian":[3.329442E4,3.1409645E4,1.8847755E3,5.610947E3,2.5798697E4,1.4040612E3,4.8071436E2,5.472906E3,1.380413E2,2.4592738E4,1.2059604E3,1.1651709E0,1.402896E3,1.4998888E0,4.7921448E2,5.338341E3,1.34565E2,6.706811E1,7.09732E1,2.3376955E4,1.2157822E3,9.469568E2,2.590037E2,6.999481E0,4.72215E2,5.064609E3,2.7373154E2,4.164049E1,9.292451E1,6.4498474E1,2.5696328E0,1.5500817E1,5.547238E1,2.2215783E4,1.1611716E3,3.2105206E2,8.947302E2,5.4771173E2,3.9924506E2,1.2666383E1,2.4633731E2,3.9997034E0,2.9997776E0,5.025909E3,3.8699795E1,2.643012E2,9.430328E0,3.504775E1,6.5927424E0,1.4610014E1,7.831449E1,6.138012E1,3.118356E0,1.4065896E0,1.1630431E0,8.248701E0,7.2521152E0,3.987175E1,1.5600629E1,2.1407074E4,8.087101E2,9.721154E2,1.8905626E2,2.30001E2,9.105105E1,8.8102576E2,1.3704443E1,1.1257351E1,1.4090314E0,3.1703205E0,2.4316699E2,1.7498703E0,1.2499073E0],"tree_param":{"num_deleted":"0","num_feature":"55","num_nodes":"73","size_leaf_vector":"1"}},{"base_weights":[-6.996937E-3,-1.0773072E-1,1.6714109E0,5.5580348E-2,-7.825181E-1,1.6944052E0,1.6009059E0,1.1425873E-1,-1.1630857E0,-8.4977734E-1,6.913618E-1,4.993452E-2,1.6950612E-1,3.6646776E-2,1.6040244E0,2.0371968E-1,-7.041869E-1,-1.20382E0,-1.0129547E0,-8.870614E-1,1.1237423E0,1.1921784E0,4.7174242E-1,9.403775E-1,1.609391E-1,2.6668012E-1,-1.0003159E0,-7.591911E-1,6.735667E-1,-5.7299435E-1,-1.2060193E0,-3.5068515E-1,-1.0451256E0,-9.0816987E-1,1.2146803E0,1.1623299E0,-1.7236723E-1,1.0296501E-1,1.3669555E0,3.5229877E-1,8.541988E-1,1.2940262E-1,-2.6245315E-2,3.21754E-2,-1.0967314E-1,-9.29345E-2,-1.04802385E-1,-8.051892E-2,5.478099E-2,5.396513E-2,1.1392055E-1,-8.869902E-2,1.8750258E-2,-1.2415878E-1,-1.15489684E-1,-6.516851E-2,1.18858196E-1,-2.3897265E-3,-1.05869226E-1,-9.299828E-2,1.048147E-1,-2.9333493E-2,1.4143623E-1,8.932156E-2,1.4186643E-1,7.05016E-2,-9.291441E-2,-8.792078E-2,3.698834E-2,1.4619553E-1,-3.5606764E-2,-3.4491103E-2,4.2539813E-2,1.0901312E-1,-3.1639468E-2],"categories":[],"categories_nodes":[],"categories_segments":[],"categories_sizes":[],"default_left":[0,0,0,0,0,0,0,0,0,0,0,0,0,0,0,0,0,0,0,0,0,0,0,0,0,0,0,0,0,0,0,0,0,0,0,0,0,0,0,0,0,0,0,0,0,0,0,0,0,0,0,0,0,0,0,0,0,0,0,0,0,0,0,0,0,0,0,0,0,0,0,0,0,0,0],"id":5,"left_children":[1,3,5,7,9,11,13,15,17,19,21,-1,-1,-1,23,25,27,29,31,33,35,37,39,41,-1,43,45,47,49,51,53,55,57,59,61,63,65,67,69,71,73,-1,-1,-1,-1,-1,-1,-1,-1,-1,-1,-1,-1,-1,-1,-1,-1,-1,-1,-1,-1,-1,-1,-1,-1,-1,-1,-1,-1,-1,-1,-1,-1,-1,-1],"loss_changes":[5.5751763E3,3.4281519E3,3.1445312E-1,1.7912457E3,6.0150024E2,2.4389648E-1,1.2493896E0,1.7498965E3,5.817627E0,4.275923E2,2.8595818E1,0E0,0E0,0E0,1.8115234E-1,1.6334116E3,1.7897668E2,5.574951E-1,5.0002136E0,2.5356836E2,5.598831E0,1.5119148E1,8.193268E0,2.9864025E0,0E0,1.5376971E3,2.6514893E0,1.366145E2,5.0558014E0,1.3677815E0,1.9494629E-1,6.878407E0,3.2958374E0,2.4142334E2,1.758284E1,5.972534E0,3.305366E0,3.5144894E0,1.181395E1,7.4548264E0,1.2372343E1,0E0,0E0,0E0,0E0,0E0,0E0,0E0,0E0,0E0,0E0,0E0,0E0,0E0,0E0,0E0,0E0,0E0,0E0,0E0,0E0,0E0,0E0,0E0,0E0,0E0,0E0,0E0,0E0,0E0,0E0,0E0,0E0,0E0,0E0],"parents":[2147483647,0,0,1,1,2,2,3,3,4,4,5,5,6,6,7,7,8,8,9,9,10,10,14,14,15,15,16,16,17,17,18,18,19,19,20,20,21,21,22,22,23,23,25,25,26,26,27,27,28,28,29,29,30,30,31,31,32,32,33,33,34,34,35,35,36,36,37,37,38,38,39,39,40,40],"right_children":[2,4,6,8,10,12,14,16,18,20,22,-1,-1,-1,24,26,28,30,32,34,36,38,40,42,-1,44,46,48,50,52,54,56,58,60,62,64,66,68,70,72,74,-1,-1,-1,-1,-1,-1,-1,-1,-1,-1,-1,-1,-1,-1,-1,-1,-1,-1,-1,-1,-1,-1,-1,-1,-1,-1,-1,-1,-1,-1,-1,-1,-1,-1],"split_conditions":[4.81745E0,1.1176535E0,7.7208686E-1,4.968897E0,4.78086E0,-1.4458948E0,-1.434565E0,6.938765E-1,-3.116508E-2,4.86304E0,-4.6908537E-1,4.993452E-2,1.6950612E-1,3.6646776E-2,-1.2691513E0,5.012365E0,4.86304E0,-1.0061078E0,-5.0234735E-1,4.8541646E0,5.1264834E-1,-1.6610765E0,-1.6836663E-1,3.574611E-1,1.609391E-1,4.902856E0,-3.2881725E-1,4.8575726E0,-3.5299328E-1,-2.8558967E-1,-1.0452116E-1,2.4182909E0,-9.1586643E-1,4.8131237E0,-4.942887E-1,-4.2691392E-1,-5.0551647E-1,-8.273875E-1,-1.7968684E-1,-4.6903014E-1,1.002931E0,1.2940262E-1,-2.6245315E-2,3.21754E-2,-1.0967314E-1,-9.29345E-2,-1.04802385E-1,-8.051892E-2,5.478099E-2,5.396513E-2,1.1392055E-1,-8.869902E-2,1.8750258E-2,-1.2415878E-1,-1.15489684E-1,-6.516851E-2,1.18858196E-1,-2.3897265E-3,-1.05869226E-1,-9.299828E-2,1.048147E-1,-2.9333493E-2,1.4143623E-1,8.932156E-2,1.4186643E-1,7.05016E-2,-9.291441E-2,-8.792078E-2,3.698834E-2,1.4619553E-1,-3.5606764E-2,-3.4491103E-2,4.2539813E-2,1.0901312E-1,-3.1639468E-2],"split_indices":[26,0,3,32,22,2,8,4,2,31,4,0,0,0,9,29,31,6,7,14,6,3,9,1,0,35,7,11,7,2,1,5,5,13,7,9,5,1,3,4,9,0,0,0,0,0,0,0,0,0,0,0,0,0,0,0,0,0,0,0,0,0,0,0,0,0,0,0,0,0,0,0,0,0,0],"split_type":[0,0,0,0,0,0,0,0,0,0,0,0,0,0,0,0,0,0,0,0,0,0,0,0,0,0,0,0,0,0,0,0,0,0,0,0,0,0,0,0,0,0,0,0,0,0,0,0,0,0,0,0,0,0,0,0,0,0,0,0,0,0,0,0,0,0,0,0,0,0,0,0,0,0,0],"sum_hessian":[3.2973023E4,3.1106996E4,1.866027E3,2.5046254E4,6.0607407E3,1.3897479E3,4.7627905E2,2.3896549E4,1.1497051E3,5.796639E3,2.6410126E2,1.180641E0,1.3885673E3,1.4988166E0,4.7478024E2,2.154257E4,2.3539792E3,8.9881525E2,2.5088985E2,5.689699E3,1.0694027E2,7.915928E1,1.8494197E2,5.222161E0,4.6955807E2,2.0472803E4,1.0697683E3,2.2640408E3,8.993848E1,4.0314255E0,8.947838E2,1.2174126E1,2.3871571E2,5.633686E3,5.6013035E1,1.03948746E2,2.9915223E0,1.1165415E1,6.7993866E1,1.4239288E2,4.25491E1,3.9770389E0,1.2451221E0,1.9678662E4,7.941392E2,4.38271E2,6.314973E2,2.1874407E3,7.660004E1,7.15267E1,1.841178E1,2.73561E0,1.2958152E0,5.1393054E2,3.8085324E2,1.0665198E1,1.508927E0,3.1658676E0,2.3554985E2,5.572082E3,6.1604004E1,6.494794E0,4.951824E1,5.2898006E1,5.1050735E1,1.4170433E0,1.574479E0,1.8957504E0,9.269664E0,6.458448E1,3.4093816E0,1.3159671E1,1.292332E2,3.5469067E1,7.0800314E0],"tree_param":{"num_deleted":"0","num_feature":"55","num_nodes":"75","size_leaf_vector":"1"}},{"base_weights":[-7.3270034E-3,-9.907151E-2,1.5422524E0,-8.929855E-1,2.6767034E-2,1.5643717E0,1.4746583E0,-9.280083E-1,7.0230824E-1,-4.1614965E-2,9.9356014E-1,4.69301E-2,1.5649896E0,3.4478232E-2,1.4775504E0,-9.5719206E-1,3.7451708E-1,7.446307E-1,-7.542955E-2,-1.1631865E-1,9.799864E-1,1.0704769E0,8.758348E-1,1.4792355E0,1.5868071E0,9.4035506E-1,1.4835668E0,-9.9491554E-1,-1.817068E-1,-1.1116458E-1,4.9081355E-1,1.249852E-1,8.6037064E-1,-1.8197517E-1,7.2397214E-1,9.965367E-1,5.517644E-1,1.0196958E0,1.280282E0,9.044095E-1,4.870948E-1,6.1840725E-1,1.487237E0,1.5876298E-1,4.706749E-2,1.3913614E-1,1.465048E-1,1.4851771E-1,4.795498E-2,-1.00549795E-1,9.653242E-2,-8.898217E-2,-1.0391309E-2,-3.8740672E-2,1.0313429E-1,2.1669282E-2,7.153525E-2,-4.6512194E-2,7.909552E-2,1.7564158E-1,7.440951E-2,-2.5119841E-2,6.936786E-2,6.749125E-2,1.011643E-1,1.22879945E-1,9.680885E-2,7.082242E-2,-7.915509E-3,1.3882075E-1,9.7982824E-2,-4.9519245E-2,1.2934972E-1,9.089946E-2,-8.7626874E-2,-3.0375823E-2,8.002459E-2,8.9503E-3,9.991094E-2,1.3480711E-1,1.5432496E-1,-6.950795E-2,7.8486905E-2],"categories":[],"categories_nodes":[],"categories_segments":[],"categories_sizes":[],"default_left":[0,0,0,0,0,0,0,0,0,0,0,0,0,0,0,0,0,0,0,0,0,0,0,0,0,0,0,0,0,0,0,0,0,0,0,0,0,0,0,0,0,0,0,0,0,0,0,0,0,0,0,0,0,0,0,0,0,0,0,0,0,0,0,0,0,0,0,0,0,0,0,0,0,0,0,0,0,0,0,0,0,0,0],"id":6,"left_children":[1,3,5,7,9,11,13,15,17,19,21,-1,23,-1,25,27,29,31,-1,33,35,37,39,41,43,45,47,49,51,53,55,57,59,61,63,65,67,69,71,73,75,77,79,-1,-1,-1,81,-1,-1,-1,-1,-1,-1,-1,-1,-1,-1,-1,-1,-1,-1,-1,-1,-1,-1,-1,-1,-1,-1,-1,-1,-1,-1,-1,-1,-1,-1,-1,-1,-1,-1,-1,-1],"loss_changes":[4.6378857E3,3.0770542E3,4.194336E-1,2.3609253E2,1.7577152E3,1.8408203E-1,1.0167236E0,1.5711743E2,6.1773643E0,1.8951738E3,1.496582E1,0E0,1.9018555E-1,0E0,1.0949707E-1,1.1782324E2,5.1996727E0,6.277172E0,0E0,1.2767875E3,1.1442749E1,9.964111E0,7.330017E0,1.0766602E0,2.3242188E-1,2.6200376E0,2.9418945E-2,8.0760254E1,1.0282819E1,6.2109466E0,4.379921E0,6.3340797E0,6.490925E0,1.3012227E3,2.2988098E1,9.567017E0,6.492811E0,1.1223938E1,5.385193E0,6.1073E0,1.2642438E1,7.9271185E-1,1.5246582E-1,0E0,0E0,0E0,2.6811724E0,0E0,0E0,0E0,0E0,0E0,0E0,0E0,0E0,0E0,0E0,0E0,0E0,0E0,0E0,0E0,0E0,0E0,0E0,0E0,0E0,0E0,0E0,0E0,0E0,0E0,0E0,0E0,0E0,0E0,0E0,0E0,0E0,0E0,0E0,0E0,0E0],"parents":[2147483647,0,0,1,1,2,2,3,3,4,4,5,5,6,6,7,7,8,8,9,9,10,10,12,12,14,14,15,15,16,16,17,17,19,19,20,20,21,21,22,22,23,23,24,24,25,25,26,26,27,27,28,28,29,29,30,30,31,31,32,32,33,33,34,34,35,35,36,36,37,37,38,38,39,39,40,40,41,41,42,42,46,46],"right_children":[2,4,6,8,10,12,14,16,18,20,22,-1,24,-1,26,28,30,32,-1,34,36,38,40,42,44,46,48,50,52,54,56,58,60,62,64,66,68,70,72,74,76,78,80,-1,-1,-1,82,-1,-1,-1,-1,-1,-1,-1,-1,-1,-1,-1,-1,-1,-1,-1,-1,-1,-1,-1,-1,-1,-1,-1,-1,-1,-1,-1,-1,-1,-1,-1,-1,-1,-1,-1,-1],"split_conditions":[4.81745E0,-7.3072064E-1,7.7208686E-1,4.86304E0,4.8572316E0,-1.4458948E0,-1.434565E0,4.78086E0,-6.1806485E-2,4.86304E0,4.754385E-1,4.69301E-2,-1.262615E-1,3.4478232E-2,-1.2064732E0,4.8541646E0,-5.945442E-1,-4.6909633E-1,-7.542955E-2,4.8609877E0,1.0334617E0,8.2323796E-1,1.1174886E0,-5.1900196E-1,2.5888495E0,1.1520288E0,1.3172878E0,4.8575726E0,-8.150727E-1,3.0202372E0,-2.8387898E-1,-1.8765548E-1,-4.6904555E-1,5.0288525E0,1.1517916E0,-7.165391E-1,3.0738614E0,-5.4427755E-1,-4.2146808E-1,3.4200127E0,7.6984483E-1,6.4495094E-2,-6.271738E-1,1.5876298E-1,4.706749E-2,1.3913614E-1,7.4143666E-1,1.4851771E-1,4.795498E-2,-1.00549795E-1,9.653242E-2,-8.898217E-2,-1.0391309E-2,-3.8740672E-2,1.0313429E-1,2.1669282E-2,7.153525E-2,-4.6512194E-2,7.909552E-2,1.7564158E-1,7.440951E-2,-2.5119841E-2,6.936786E-2,6.749125E-2,1.011643E-1,1.22879945E-1,9.680885E-2,7.082242E-2,-7.915509E-3,1.3882075E-1,9.7982824E-2,-4.9519245E-2,1.2934972E-1,9.089946E-2,-8.7626874E-2,-3.0375823E-2,8.002459E-2,8.9503E-3,9.991094E-2,1.3480711E-1,1.5432496E-1,-6.950795E-2,7.8486905E-2],"split_indices":[26,6,3,31,28,2,8,22,7,31,7,0,1,0,9,20,2,4,0,21,2,6,3,7,4,3,2,11,2,52,1,2,4,18,9,5,36,3,3,5,6,0,0,0,0,0,48,0,0,0,0,0,0,0,0,0,0,0,0,0,0,0,0,0,0,0,0,0,0,0,0,0,0,0,0,0,0,0,0,0,0,0,0],"split_type":[0,0,0,0,0,0,0,0,0,0,0,0,0,0,0,0,0,0,0,0,0,0,0,0,0,0,0,0,0,0,0,0,0,0,0,0,0,0,0,0,0,0,0,0,0,0,0,0,0,0,0,0,0,0,0,0,0,0,0,0,0,0,0,0,0,0,0,0,0,0,0,0,0,0,0,0,0,0,0,0,0,0,0],"sum_hessian":[3.2621094E4,3.0798568E4,1.8225261E3,4.212959E3,2.658561E4,1.3564901E3,4.66036E2,4.1228647E3,9.00943E1,2.4830299E4,1.7553087E3,1.1939044E0,1.3552961E3,1.4967725E0,4.645392E2,4.0327734E3,9.009125E1,8.802546E1,2.0688405E0,2.3139156E4,1.6911439E3,1.0567676E3,6.985412E2,2.8883362E2,1.0664625E3,6.8872375E0,4.5765198E2,3.8454294E3,1.8734393E2,1.74133E1,7.267795E1,1.4181388E1,7.384407E1,2.1462924E4,1.6762323E3,1.6269375E3,6.4206406E1,8.555506E2,2.0121693E2,6.494745E2,4.906675E1,3.3809955E0,2.854526E2,1.0652551E3,1.2074984E0,3.912037E0,2.975201E0,4.564406E2,1.2113605E0,3.8252659E3,2.0163591E1,1.7511133E1,1.698328E2,1.4555017E1,2.858282E0,3.3610622E1,3.9067326E1,7.6788497E0,6.5025387E0,6.86158E0,6.698249E1,1.9891176E4,1.5717482E3,1.4348735E3,2.4135883E2,1.7292352E2,1.4540139E3,5.1349804E1,1.2856601E1,8.02204E1,7.753302E2,1.2171685E0,1.9999976E2,6.4829474E2,1.1797523E0,1.3926307E1,3.5140446E1,1.9319974E0,1.4489981E0,8.911338E1,1.9633923E2,1.2450074E0,1.7301936E0],"tree_param":{"num_deleted":"0","num_feature":"55","num_nodes":"83","size_leaf_vector":"1"}},{"base_weights":[-7.174797E-3,-9.1066346E-2,1.4386543E0,-8.594646E-1,2.393057E-2,1.4605812E0,1.3719743E0,-8.9460915E-1,6.286301E-1,7.128818E-2,-1.1219109E0,4.4136744E-2,1.4611819E0,3.2450013E-2,1.3747227E0,-9.2444474E-1,3.3335698E-1,7.401388E-1,8.444926E-2,1.1307756E-1,-1.2190187E-1,-1.166153E0,-9.604979E-1,1.3786403E0,1.482243E0,8.7847126E-1,1.3803099E-1,-9.635567E-1,-1.6613802E-1,-2.1217997E-1,4.1317257E-1,-1.4645245E-2,8.365517E-1,3.851368E-1,-1.009352E-1,1.6711849E-1,-9.874052E-1,-1.204088E0,-1.112061E0,-3.1225082E-1,-9.9405915E-1,5.861725E-1,1.3860942E0,1.4830114E0,4.4728864E-2,1.3074815E-1,1.3481154E-1,-9.751234E-2,1.0826521E-1,-8.034455E-2,-8.829669E-3,-6.983866E-2,5.6814488E-2,3.3265743E-2,1.3969174E-1,8.664154E-2,-9.763652E-2,-4.4215854E-2,8.662365E-2,3.8800442E-3,1.115798E-1,2.1949433E-2,-1.0754999E-1,-8.1186436E-2,-1.0511625E-1,-4.936854E-2,-1.2061628E-1,-8.758152E-2,-1.125549E-1,-6.0776245E-2,1.1006033E-1,-1.1061778E-1,-8.2446866E-2,5.4365396E-3,9.807034E-2,1.2522385E-1,1.440264E-1,1.483842E-1,5.088314E-2,7.573787E-2,-6.793255E-2],"categories":[],"categories_nodes":[],"categories_segments":[],"categories_sizes":[],"default_left":[0,0,0,0,0,0,0,0,0,0,0,0,0,0,0,0,0,0,0,0,0,0,0,0,0,0,0,0,0,0,0,0,0,0,0,0,0,0,0,0,0,0,0,0,0,0,0,0,0,0,0,0,0,0,0,0,0,0,0,0,0,0,0,0,0,0,0,0,0,0,0,0,0,0,0,0,0,0,0,0,0],"id":7,"left_children":[1,3,5,7,9,11,13,15,17,19,21,-1,23,-1,25,27,29,31,33,35,-1,37,39,41,43,45,-1,47,49,51,53,55,57,59,-1,61,63,65,67,69,71,73,75,77,-1,-1,79,-1,-1,-1,-1,-1,-1,-1,-1,-1,-1,-1,-1,-1,-1,-1,-1,-1,-1,-1,-1,-1,-1,-1,-1,-1,-1,-1,-1,-1,-1,-1,-1,-1,-1],"loss_changes":[3.899594E3,2.6851206E3,5.7373047E-1,2.0743848E2,1.4344115E3,1.5820312E-1,8.574829E-1,1.4190454E2,5.5112762E0,1.3688806E3,6.3719482E0,0E0,2.3388672E-1,0E0,3.869629E-2,1.1175537E2,4.111434E0,5.5504303E0,5.8976145E0,1.4624855E3,0E0,3.4118652E-1,4.723282E0,8.452759E-1,1.5625E-1,2.3042846E0,0E0,8.597925E1,9.170607E0,5.1223207E0,5.947461E0,8.982817E0,2.94524E0,3.4645264E0,0E0,1.5256982E3,1.2029663E1,9.613037E-2,1.3140869E-1,6.0326953E0,3.262085E0,8.589393E-1,2.0709229E-1,7.788086E-2,0E0,0E0,2.5213516E0,0E0,0E0,0E0,0E0,0E0,0E0,0E0,0E0,0E0,0E0,0E0,0E0,0E0,0E0,0E0,0E0,0E0,0E0,0E0,0E0,0E0,0E0,0E0,0E0,0E0,0E0,0E0,0E0,0E0,0E0,0E0,0E0,0E0,0E0],"parents":[2147483647,0,0,1,1,2,2,3,3,4,4,5,5,6,6,7,7,8,8,9,9,10,10,12,12,14,14,15,15,16,16,17,17,18,18,19,19,21,21,22,22,23,23,24,24,25,25,27,27,28,28,29,29,30,30,31,31,32,32,33,33,35,35,36,36,37,37,38,38,39,39,40,40,41,41,42,42,43,43,46,46],"right_children":[2,4,6,8,10,12,14,16,18,20,22,-1,24,-1,26,28,30,32,34,36,-1,38,40,42,44,46,-1,48,50,52,54,56,58,60,-1,62,64,66,68,70,72,74,76,78,-1,-1,80,-1,-1,-1,-1,-1,-1,-1,-1,-1,-1,-1,-1,-1,-1,-1,-1,-1,-1,-1,-1,-1,-1,-1,-1,-1,-1,-1,-1,-1,-1,-1,-1,-1,-1],"split_conditions":[4.81745E0,-7.3072064E-1,7.7208686E-1,4.86304E0,4.968897E0,-1.4458948E0,-1.434565E0,4.78086E0,1.136122E0,4.7568994E0,-3.116508E-2,4.4136744E-2,-1.262615E-1,3.2450013E-2,-1.2064732E0,4.8541646E0,-7.3755103E-1,-6.99867E-1,-2.5127235E-1,4.8258014E0,-1.2190187E-1,-1.0452116E-1,-5.0234735E-1,-5.1900196E-1,2.5888495E0,1.1520288E0,1.3803099E-1,4.8572316E0,-7.814746E-1,-3.8039276E-1,1.7694731E0,-3.7831593E-1,-5.1900196E-1,-4.5975253E-1,-1.009352E-1,4.902856E0,-4.5863652E-1,-2.2350748E0,-4.9321422E-1,2.4182909E0,3.4659094E-1,6.373872E-2,-6.271738E-1,3.2979755E0,4.4728864E-2,1.3074815E-1,1.4707786E-2,-9.751234E-2,1.0826521E-1,-8.034455E-2,-8.829669E-3,-6.983866E-2,5.6814488E-2,3.3265743E-2,1.3969174E-1,8.664154E-2,-9.763652E-2,-4.4215854E-2,8.662365E-2,3.8800442E-3,1.115798E-1,2.1949433E-2,-1.0754999E-1,-8.1186436E-2,-1.0511625E-1,-4.936854E-2,-1.2061628E-1,-8.758152E-2,-1.125549E-1,-6.0776245E-2,1.1006033E-1,-1.1061778E-1,-8.2446866E-2,5.4365396E-3,9.807034E-2,1.2522385E-1,1.440264E-1,1.483842E-1,5.088314E-2,7.573787E-2,-6.793255E-2],"split_indices":[26,6,3,31,32,2,8,22,9,16,2,0,1,0,9,20,2,2,5,19,0,1,7,7,4,3,0,28,2,7,0,8,7,5,0,35,4,1,7,5,1,2,0,5,0,0,2,0,0,0,0,0,0,0,0,0,0,0,0,0,0,0,0,0,0,0,0,0,0,0,0,0,0,0,0,0,0,0,0,0,0],"split_type":[0,0,0,0,0,0,0,0,0,0,0,0,0,0,0,0,0,0,0,0,0,0,0,0,0,0,0,0,0,0,0,0,0,0,0,0,0,0,0,0,0,0,0,0,0,0,0,0,0,0,0,0,0,0,0,0,0,0,0,0,0,0,0,0,0,0,0,0,0,0,0,0,0,0,0,0,0,0,0,0,0],"sum_hessian":[3.2148158E4,3.0386004E4,1.7621544E3,3.954688E3,2.6431314E4,1.310356E3,4.5179843E2,3.863834E3,9.085397E1,2.5383168E4,1.0481481E3,1.205197E0,1.3091508E3,1.4939378E0,4.503045E2,3.7724236E3,9.141039E1,7.5104195E1,1.5749779E1,2.4587752E4,7.9541516E2,8.177772E2,2.3037088E2,2.796439E2,1.0295068E3,6.7750955E0,4.4352942E2,3.5871355E3,1.8528822E2,1.1455317E1,7.995507E1,8.6029215E0,6.650127E1,1.2861912E1,2.887867E0,2.3437658E4,1.1500948E3,4.681794E2,3.4959784E2,1.1846948E1,2.1852393E2,3.347919E0,2.76296E2,1.0283104E3,1.1964256E0,3.8156888E0,2.9594064E0,3.5674927E3,1.964268E1,1.9153328E1,1.661349E2,7.1224494E0,4.3328667E0,7.51431E1,4.811975E0,4.5414553E0,4.0614667E0,1.1935232E0,6.530775E1,9.440283E0,3.4216292E0,2.2490516E4,9.471423E2,3.100843E2,8.4001056E2,2.05925E0,4.6612018E2,2.2442497E1,3.2715533E2,1.0268937E1,1.5780106E0,1.2822797E2,9.029596E1,1.9104836E0,1.4374354E0,8.654828E1,1.897477E2,1.0269117E3,1.3987446E0,1.7165126E0,1.2428939E0],"tree_param":{"num_deleted":"0","num_feature":"55","num_nodes":"81","size_leaf_vector":"1"}},{"base_weights":[-7.2783614E-3,-8.3729155E-2,1.353046E0,4.1028302E-2,-7.1246713E-1,1.3752704E0,1.285871E0,8.702708E-2,-1.0883824E0,-7.793427E-1,5.4304415E-1,1.0642942E0,1.3794383E0,3.0550847E-2,1.2885313E0,1.5795246E-1,-6.711576E-1,-1.1340892E0,-9.246114E-1,-8.142726E-1,8.443087E-1,9.5554465E-1,3.5838875E-1,1.2292508E0,-4.4276696E-2,4.153512E-2,1.3800501E0,1.2900518E0,3.8812727E-2,2.1139313E-1,-9.553034E-1,-7.245264E-1,4.066648E-1,-4.6153265E-1,-1.1365806E0,-2.7408782E-1,-9.588875E-1,-8.361087E-1,1.0031586E0,5.826349E-1,1.1200409E0,-6.609506E-1,1.0439426E0,7.934988E-2,5.4405904E-1,1.3186936E0,3.0654394E-3,1.380661E-1,4.8322942E-2,7.596865E-1,1.294452E-1,2.7280748E-2,-7.4155144E-2,-8.83228E-2,-1.00451045E-1,-7.7717096E-2,4.9815252E-2,3.0750096E-2,1.3933903E-1,-8.129271E-2,3.0236978E-2,-1.1770456E-1,-1.0793226E-1,-5.2212656E-2,1.2468077E-1,6.713599E-3,-9.739872E-2,-8.927838E-2,-8.993422E-3,1.4550595E-1,2.3687622E-2,3.6681987E-2,1.14598684E-1,1.3058752E-1,5.580007E-2,2.8434122E-2,-1.00629725E-1,1.1289656E-1,-7.396133E-2,-5.1626554E-3,9.532639E-2,7.0809156E-2,2.0489693E-3,1.3636707E-1,4.3924004E-2,1.0852166E-1,-2.797912E-2],"categories":[],"categories_nodes":[],"categories_segments":[],"categories_sizes":[],"default_left":[0,0,0,0,0,0,0,0,0,0,0,0,0,0,0,0,0,0,0,0,0,0,0,0,0,0,0,0,0,0,0,0,0,0,0,0,0,0,0,0,0,0,0,0,0,0,0,0,0,0,0,0,0,0,0,0,0,0,0,0,0,0,0,0,0,0,0,0,0,0,0,0,0,0,0,0,0,0,0,0,0,0,0,0,0,0,0],"id":8,"left_children":[1,3,5,7,9,11,13,15,17,19,21,23,25,-1,27,29,31,33,35,37,39,41,43,45,-1,-1,47,49,-1,51,53,55,57,59,61,63,65,67,69,71,73,75,77,79,81,83,-1,-1,-1,85,-1,-1,-1,-1,-1,-1,-1,-1,-1,-1,-1,-1,-1,-1,-1,-1,-1,-1,-1,-1,-1,-1,-1,-1,-1,-1,-1,-1,-1,-1,-1,-1,-1,-1,-1,-1,-1],"loss_changes":[3.3063022E3,2.3610874E3,7.5683594E-1,1.3049852E3,4.188789E2,1.6088867E-1,7.432251E-1,1.297978E3,6.3098145E0,2.6906763E2,1.890046E1,5.764454E0,1.5649414E-1,0E0,9.399414E-2,1.3133113E3,1.19068115E2,7.557373E-1,4.640503E0,1.8470312E2,6.5735016E0,1.1767105E1,9.080982E0,2.0170193E0,0E0,0E0,9.521484E-3,2.7770996E-2,0E0,1.2328113E3,2.6989746E0,1.2704773E2,9.166243E0,1.4547555E0,4.9188232E-1,5.3314657E0,3.2955933E0,1.9354517E2,1.8859741E1,6.080454E0,4.251461E0,1.7981524E0,1.2039566E1,8.237163E0,9.05265E0,1.064949E-1,0E0,0E0,0E0,2.329034E0,0E0,0E0,0E0,0E0,0E0,0E0,0E0,0E0,0E0,0E0,0E0,0E0,0E0,0E0,0E0,0E0,0E0,0E0,0E0,0E0,0E0,0E0,0E0,0E0,0E0,0E0,0E0,0E0,0E0,0E0,0E0,0E0,0E0,0E0,0E0,0E0,0E0],"parents":[2147483647,0,0,1,1,2,2,3,3,4,4,5,5,6,6,7,7,8,8,9,9,10,10,11,11,12,12,14,14,15,15,16,16,17,17,18,18,19,19,20,20,21,21,22,22,23,23,26,26,27,27,29,29,30,30,31,31,32,32,33,33,34,34,35,35,36,36,37,37,38,38,39,39,40,40,41,41,42,42,43,43,44,44,45,45,49,49],"right_children":[2,4,6,8,10,12,14,16,18,20,22,24,26,-1,28,30,32,34,36,38,40,42,44,46,-1,-1,48,50,-1,52,54,56,58,60,62,64,66,68,70,72,74,76,78,80,82,84,-1,-1,-1,86,-1,-1,-1,-1,-1,-1,-1,-1,-1,-1,-1,-1,-1,-1,-1,-1,-1,-1,-1,-1,-1,-1,-1,-1,-1,-1,-1,-1,-1,-1,-1,-1,-1,-1,-1,-1,-1],"split_conditions":[4.81745E0,1.1802738E0,7.7208686E-1,4.968897E0,4.78086E0,-1.3002399E0,-1.434565E0,9.2305195E-1,-3.116508E-2,4.86304E0,-4.6908537E-1,7.5333846E-1,-1.4458948E0,3.0550847E-2,1.3172878E0,5.012365E0,4.78086E0,-1.0061078E0,-5.0234735E-1,4.8575726E0,-4.07327E-1,-1.0991418E0,-1.2696213E0,1.075882E0,-4.4276696E-2,4.153512E-2,3.2979755E0,-1.2691513E0,3.8812727E-2,4.9721746E0,-3.2881725E-1,4.86304E0,3.284409E0,-2.8558967E-1,-1.0452116E-1,2.9928825E0,-9.1586643E-1,4.8541646E0,-4.7500718E-1,-1.13368325E-1,-5.596288E-1,1.3083606E0,-1.7968684E-1,1.7694731E0,2.0629446E-1,8.570865E-1,3.0654394E-3,1.380661E-1,4.8322942E-2,3.574611E-1,1.294452E-1,2.7280748E-2,-7.4155144E-2,-8.83228E-2,-1.00451045E-1,-7.7717096E-2,4.9815252E-2,3.0750096E-2,1.3933903E-1,-8.129271E-2,3.0236978E-2,-1.1770456E-1,-1.0793226E-1,-5.2212656E-2,1.2468077E-1,6.713599E-3,-9.739872E-2,-8.927838E-2,-8.993422E-3,1.4550595E-1,2.3687622E-2,3.6681987E-2,1.14598684E-1,1.3058752E-1,5.580007E-2,2.8434122E-2,-1.00629725E-1,1.1289656E-1,-7.396133E-2,-5.1626554E-3,9.532639E-2,7.0809156E-2,2.0489693E-3,1.3636707E-1,4.3924004E-2,1.0852166E-1,-2.797912E-2],"split_indices":[26,0,3,32,22,1,8,4,2,31,4,6,2,0,2,29,22,6,7,11,9,1,3,5,0,0,5,9,0,30,7,31,44,2,1,5,5,20,5,4,3,0,3,0,2,2,0,0,0,1,0,0,0,0,0,0,0,0,0,0,0,0,0,0,0,0,0,0,0,0,0,0,0,0,0,0,0,0,0,0,0,0,0,0,0,0,0],"split_type":[0,0,0,0,0,0,0,0,0,0,0,0,0,0,0,0,0,0,0,0,0,0,0,0,0,0,0,0,0,0,0,0,0,0,0,0,0,0,0,0,0,0,0,0,0,0,0,0,0,0,0,0,0,0,0,0,0,0,0,0,0,0,0,0,0,0,0,0,0,0,0,0,0,0,0,0,0,0,0,0,0,0,0,0,0,0,0],"sum_hessian":[3.1789928E4,3.0099275E4,1.6906533E3,2.5116469E4,4.9828057E3,1.2557305E3,4.3492288E2,2.4134441E4,9.8202765E2,4.731176E3,2.5162982E2,1.9998352E1,1.2357322E3,1.4904686E0,4.334324E2,2.207061E4,2.0638323E3,7.6312256E2,2.1890512E2,4.632025E3,9.9150955E1,7.651925E1,1.7511058E2,1.8191525E1,1.8068285E0,1.2147378E0,1.2345173E3,4.3226968E2,1.1627247E0,2.1060436E4,1.0101739E3,1.9667744E3,9.705783E1,3.5037675E0,7.596188E2,1.1407117E1,2.07498E2,4.5775664E3,5.445864E1,5.2469612E1,4.6681343E1,3.63166E0,7.288759E1,7.053412E1,1.0457646E2,1.6835045E1,1.3564805E0,1.2331378E3,1.3795455E0,4.985554E0,4.2728415E2,1.9786002E4,1.2744332E3,4.175383E2,5.926356E2,1.8859365E3,8.083788E1,8.938633E1,7.671501E0,2.3558857E0,1.1478817E0,4.336181E2,3.260007E2,1.0372235E1,1.034882E0,2.9594226E0,2.0453857E2,4.254242E3,3.23324E2,3.3691093E1,2.076755E1,3.9130287E1,1.3339322E1,3.408721E1,1.25941305E1,1.0190203E0,2.6126397E0,6.992141E1,2.966178E0,6.2159058E1,8.375063E0,7.936061E1,2.5215845E1,1.5492155E1,1.3428893E0,3.7630804E0,1.2224741E0],"tree_param":{"num_deleted":"0","num_feature":"55","num_nodes":"87","size_leaf_vector":"1"}},{"base_weights":[-7.307494E-3,-7.70052E-2,1.2804583E0,-8.0399555E-1,2.0790376E-2,1.3033022E0,1.2118976E0,-8.390594E-1,5.0917387E-1,-3.8307272E-2,8.2542384E-1,1.2214947E0,1.3243957E0,2.8770706E-2,1.2145085E0,-8.6993504E-1,2.630285E-1,5.456944E-1,-7.401799E-2,-1.0282998E-1,8.09295E-1,1.026405E0,7.8342795E-1,4.6437883E-1,1.2291651E0,3.1087154E-3,1.3259146E0,1.1406509E0,1.2722284E0,-9.11474E-1,-1.5145788E-1,-5.7259566E-1,3.0880004E-1,2.0694194E-2,6.444054E-1,-1.5394989E-1,7.045916E-1,8.5050684E-1,6.383944E-1,9.387089E-1,1.2585547E0,7.52343E-1,1.0082668E0,-5.435358E-3,8.891893E-2,1.0923697E0,1.2856328E0,1.3267115E0,3.5856307E-2,1.1481471E0,-5.8866143E-3,1.2757787E0,2.791672E-2,-9.237596E-2,1.37708E-1,5.9260624E-3,-3.7372753E-2,2.0740194E-2,-8.4119715E-2,7.074736E-2,1.654364E-2,-5.0330132E-2,6.14854E-2,1.4720182E-1,5.39877E-2,-2.1090236E-2,6.9826365E-2,5.794354E-2,1.06525026E-1,1.0674528E-1,8.174583E-2,5.8538657E-2,1.1055875E-1,9.8972924E-2,4.149237E-2,1.3241456E-1,2.470393E-2,6.881121E-2,8.868099E-2,-2.5437543E-2,1.0399518E-1,1.1295785E-1,4.7348766E-3,1.2901567E-1,3.7985224E-2,1.3284363E-1,6.588628E-2,1.1797118E-1,8.5198306E-2,6.532E-2,1.2832753E-1],"categories":[],"categories_nodes":[],"categories_segments":[],"categories_sizes":[],"default_left":[0,0,0,0,0,0,0,0,0,0,0,0,0,0,0,0,0,0,0,0,0,0,0,0,0,0,0,0,0,0,0,0,0,0,0,0,0,0,0,0,0,0,0,0,0,0,0,0,0,0,0,0,0,0,0,0,0,0,0,0,0,0,0,0,0,0,0,0,0,0,0,0,0,0,0,0,0,0,0,0,0,0,0,0,0,0,0,0,0,0,0],"id":9,"left_children":[1,3,5,7,9,11,13,15,17,19,21,23,25,-1,27,29,31,33,-1,35,37,39,41,43,45,-1,47,49,51,53,55,57,59,61,63,65,67,69,71,73,75,77,79,-1,-1,81,83,85,-1,87,-1,89,-1,-1,-1,-1,-1,-1,-1,-1,-1,-1,-1,-1,-1,-1,-1,-1,-1,-1,-1,-1,-1,-1,-1,-1,-1,-1,-1,-1,-1,-1,-1,-1,-1,-1,-1,-1,-1,-1,-1],"loss_changes":[2.8203296E3,2.119352E3,9.4750977E-1,1.6317456E2,1.2494952E3,4.477539E-1,6.578369E-1,1.1738599E2,4.62652E0,1.338824E3,1.4370605E1,9.28772E-1,1.8048096E0,0E0,3.2226562E-1,9.982373E1,3.794929E0,4.6763287E0,0E0,9.390464E2,1.1653931E1,5.0792236E0,9.664612E0,9.731995E-1,5.655823E-1,0E0,2.4768066E-1,1.7953949E0,4.3655396E-1,9.029199E1,8.652287E0,1.2770723E0,5.046011E0,5.090042E0,5.7919426E0,1.0385438E3,6.053064E1,9.109436E0,7.7845154E0,5.6592712E0,5.07222E0,1.073999E1,7.3938293E0,0E0,0E0,3.1025696E0,2.263794E-1,2.0458984E-1,0E0,7.805023E-1,0E0,2.0605469E-1,0E0,0E0,0E0,0E0,0E0,0E0,0E0,0E0,0E0,0E0,0E0,0E0,0E0,0E0,0E0,0E0,0E0,0E0,0E0,0E0,0E0,0E0,0E0,0E0,0E0,0E0,0E0,0E0,0E0,0E0,0E0,0E0,0E0,0E0,0E0,0E0,0E0,0E0,0E0],"parents":[2147483647,0,0,1,1,2,2,3,3,4,4,5,5,6,6,7,7,8,8,9,9,10,10,11,11,12,12,14,14,15,15,16,16,17,17,19,19,20,20,21,21,22,22,23,23,24,24,26,26,27,27,28,28,29,29,30,30,31,31,32,32,33,33,34,34,35,35,36,36,37,37,38,38,39,39,40,40,41,41,42,42,45,45,46,46,47,47,49,49,51,51],"right_children":[2,4,6,8,10,12,14,16,18,20,22,24,26,-1,28,30,32,34,-1,36,38,40,42,44,46,-1,48,50,52,54,56,58,60,62,64,66,68,70,72,74,76,78,80,-1,-1,82,84,86,-1,88,-1,90,-1,-1,-1,-1,-1,-1,-1,-1,-1,-1,-1,-1,-1,-1,-1,-1,-1,-1,-1,-1,-1,-1,-1,-1,-1,-1,-1,-1,-1,-1,-1,-1,-1,-1,-1,-1,-1,-1,-1],"split_conditions":[4.81745E0,-7.3072064E-1,7.7208686E-1,4.86304E0,4.8572316E0,-1.262615E-1,-1.434565E0,4.78086E0,-6.1806485E-2,4.86304E0,-3.6588714E-1,-5.1900196E-1,-1.3231983E0,2.8770706E-2,8.2323796E-1,4.8541646E0,-1.3830342E0,-4.6909633E-1,-7.401799E-2,4.8131237E0,-4.3616366E-1,6.799797E-1,1.7107974E0,-2.5126848E-1,-6.271738E-1,3.1087154E-3,2.5888495E0,1.5051061E0,3.2979755E0,4.8541646E0,-5.207711E-1,-1.5774293E0,-6.4577395E-1,-1.8765548E-1,-4.6904555E-1,4.8231244E0,4.5529264E-1,-4.8808062E-1,7.191611E-1,-4.3045136E-1,1.4131739E0,6.6811156E-1,-8.339999E-1,-5.435358E-3,8.891893E-2,5.4671435E0,1.9001346E0,1.3905277E0,3.5856307E-2,2.9453213E0,-5.8866143E-3,-1.2064732E0,2.791672E-2,-9.237596E-2,1.37708E-1,5.9260624E-3,-3.7372753E-2,2.0740194E-2,-8.4119715E-2,7.074736E-2,1.654364E-2,-5.0330132E-2,6.14854E-2,1.4720182E-1,5.39877E-2,-2.1090236E-2,6.9826365E-2,5.794354E-2,1.06525026E-1,1.0674528E-1,8.174583E-2,5.8538657E-2,1.1055875E-1,9.8972924E-2,4.149237E-2,1.3241456E-1,2.470393E-2,6.881121E-2,8.868099E-2,-2.5437543E-2,1.0399518E-1,1.1295785E-1,4.7348766E-3,1.2901567E-1,3.7985224E-2,1.3284363E-1,6.588628E-2,1.1797118E-1,8.5198306E-2,6.532E-2,1.2832753E-1],"split_indices":[26,6,3,31,28,1,8,22,7,31,7,7,2,0,6,20,8,4,0,13,4,3,1,1,0,0,4,3,5,14,5,1,8,2,4,12,1,2,0,4,8,6,5,0,0,42,2,2,0,40,0,9,0,0,0,0,0,0,0,0,0,0,0,0,0,0,0,0,0,0,0,0,0,0,0,0,0,0,0,0,0,0,0,0,0,0,0,0,0,0,0],"split_type":[0,0,0,0,0,0,0,0,0,0,0,0,0,0,0,0,0,0,0,0,0,0,0,0,0,0,0,0,0,0,0,0,0,0,0,0,0,0,0,0,0,0,0,0,0,0,0,0,0,0,0,0,0,0,0,0,0,0,0,0,0,0,0,0,0,0,0,0,0,0,0,0,0,0,0,0,0,0,0,0,0,0,0,0,0,0,0,0,0,0,0],"sum_hessian":[3.1420676E4,2.9808303E4,1.6123734E3,3.5335396E3,2.6274764E4,1.1959014E3,4.1647202E2,3.4419934E3,9.154612E1,2.4477895E4,1.7968676E3,2.5722177E2,9.386796E2,1.486499E0,4.1498553E2,3.348397E3,9.359658E1,8.949331E1,2.052809E0,2.2747172E4,1.7307225E3,3.065173E2,1.4903502E3,3.1970248E0,2.5402475E2,1.1263357E0,9.375533E2,1.9115176E2,2.2383376E2,3.1651353E3,1.8326164E2,4.2628255E0,8.9333755E1,1.4355015E1,7.51383E1,2.1393506E4,1.3536677E3,1.3912523E3,3.3947018E2,2.2613635E2,8.038095E1,1.3131481E3,1.7720212E2,1.8320168E0,1.365008E0,8.016553E1,1.7385922E2,9.3641034E2,1.142947E0,1.9000716E2,1.1446067E0,2.2275269E2,1.0810761E0,3.148828E3,1.6307457E1,9.44518E1,8.880984E1,1.1502974E0,3.1125283E0,2.25872E1,6.674655E1,7.7091537E0,6.645861E0,6.9588146E0,6.817948E1,2.0054066E4,1.339438E3,1.0068694E3,3.467983E2,1.7978151E2,1.2114708E3,3.06902E2,3.256818E1,2.0525363E2,2.0882711E1,7.5195854E1,5.1850986E0,8.928004E2,4.2034766E2,4.1658363E0,1.7303627E2,7.733117E1,2.8343582E0,1.7257298E2,1.2862463E0,9.330117E2,3.398638E0,1.6901094E2,2.0996216E1,3.6989083E0,2.1905377E2],"tree_param":{"num_deleted":"0","num_feature":"55","num_nodes":"91","size_leaf_vector":"1"}},{"base_weights":[-6.9697266E-3,-7.055287E-2,1.217899E0,-4.90721E-1,8.163859E-2,1.2428967E0,1.1506639E0,-9.033755E-1,-3.247044E-1,1.2590423E-1,-1.0523152E0,9.135671E-1,1.247442E0,-1.8136156E-3,1.1553142E0,-9.248853E-1,6.0488856E-1,-3.899681E-1,6.871554E-1,1.7287003E-1,-9.2594755E-1,-1.1164929E0,-9.006894E-1,1.0881354E0,-4.863405E-2,1.2481452E0,2.8264252E-2,1.2390227E0,1.1059823E0,-9.5053375E-1,-1.786387E-1,-4.751326E-1,7.81197E-1,-4.5441443E-1,5.859619E-1,7.6715E-1,2.9131094E-1,2.2018722E-1,-9.060495E-1,-6.3105416E-1,-9.688666E-1,1.440535E-3,-1.1196954E0,-1.0141939E0,-6.3936937E-1,1.1870223E0,-1.82769E-2,3.4754854E-2,1.2488495E0,1.2443198E0,2.535502E-2,9.831061E-1,1.2067809E0,-9.6829474E-2,1.8243005E-2,-4.5972805E-2,2.3064125E-2,-1.0410901E-1,5.6893963E-2,-4.735369E-3,8.976815E-2,-4.951481E-2,7.854681E-2,1.9871002E-2,7.139703E-2,7.8025484E-3,8.073791E-2,9.585706E-2,7.4946815E-3,2.6500104E-2,-1.0054823E-1,-8.860865E-2,-1.15934506E-1,-4.3908134E-2,-1.0266775E-1,-9.883728E-2,-7.318508E-2,-3.3992957E-2,-1.12128176E-1,-1.6804429E-2,-1.0189736E-1,-1.5009453E-2,-8.433371E-2,1.2336955E-1,3.6282282E-2,1.2507808E-1,7.1025506E-2,7.554864E-2,1.2587036E-1,1.0181133E-1,5.4318406E-2,5.58751E-2,1.2215062E-1],"categories":[],"categories_nodes":[],"categories_segments":[],"categories_sizes":[],"default_left":[0,0,0,0,0,0,0,0,0,0,0,0,0,0,0,0,0,0,0,0,0,0,0,0,0,0,0,0,0,0,0,0,0,0,0,0,0,0,0,0,0,0,0,0,0,0,0,0,0,0,0,0,0,0,0,0,0,0,0,0,0,0,0,0,0,0,0,0,0,0,0,0,0,0,0,0,0,0,0,0,0,0,0,0,0,0,0,0,0,0,0,0,0],"id":10,"left_children":[1,3,5,7,9,11,13,15,17,19,21,23,25,-1,27,29,31,33,35,37,39,41,43,45,-1,47,-1,49,51,53,55,57,59,61,63,65,67,69,71,73,75,-1,77,79,81,83,-1,-1,85,87,-1,89,91,-1,-1,-1,-1,-1,-1,-1,-1,-1,-1,-1,-1,-1,-1,-1,-1,-1,-1,-1,-1,-1,-1,-1,-1,-1,-1,-1,-1,-1,-1,-1,-1,-1,-1,-1,-1,-1,-1,-1,-1],"loss_changes":[2.4173904E3,1.8869384E3,1.144043E0,5.372363E2,1.0874806E3,5.131836E-1,2.350647E0,7.3570435E1,3.6986823E2,1.0301438E3,6.9151E0,5.115615E0,3.8452148E-1,0E0,3.9276123E-1,4.2306396E1,6.5117483E0,3.3098944E2,1.0526184E1,1.01914166E3,1.0669434E1,2.0723267E0,6.684845E0,2.3528938E0,0E0,2.541504E-1,0E0,4.6748352E-1,2.256134E0,4.3345093E1,8.731122E0,3.6339073E0,2.7545967E0,2.4953851E2,1.6026627E1,7.7491455E0,8.4002075E0,1.0505448E3,3.2139282E0,8.367519E0,2.8652344E0,0E0,3.1915283E-1,5.1898193E-1,7.6150417E0,1.6411209E-1,0E0,0E0,2.3937988E-1,9.6343994E-2,0E0,1.4590454E0,7.3257446E-1,0E0,0E0,0E0,0E0,0E0,0E0,0E0,0E0,0E0,0E0,0E0,0E0,0E0,0E0,0E0,0E0,0E0,0E0,0E0,0E0,0E0,0E0,0E0,0E0,0E0,0E0,0E0,0E0,0E0,0E0,0E0,0E0,0E0,0E0,0E0,0E0,0E0,0E0,0E0,0E0],"parents":[2147483647,0,0,1,1,2,2,3,3,4,4,5,5,6,6,7,7,8,8,9,9,10,10,11,11,12,12,14,14,15,15,16,16,17,17,18,18,19,19,20,20,21,21,22,22,23,23,25,25,27,27,28,28,29,29,30,30,31,31,32,32,33,33,34,34,35,35,36,36,37,37,38,38,39,39,40,40,42,42,43,43,44,44,45,45,48,48,49,49,51,51,52,52],"right_children":[2,4,6,8,10,12,14,16,18,20,22,24,26,-1,28,30,32,34,36,38,40,42,44,46,-1,48,-1,50,52,54,56,58,60,62,64,66,68,70,72,74,76,-1,78,80,82,84,-1,-1,86,88,-1,90,92,-1,-1,-1,-1,-1,-1,-1,-1,-1,-1,-1,-1,-1,-1,-1,-1,-1,-1,-1,-1,-1,-1,-1,-1,-1,-1,-1,-1,-1,-1,-1,-1,-1,-1,-1,-1,-1,-1,-1,-1],"split_conditions":[4.81745E0,-7.080196E-2,7.260333E-1,-1.1573603E0,4.968897E0,-1.3002399E0,-1.434565E0,4.86304E0,4.86304E0,4.8258014E0,2.86805E-1,7.5333846E-1,3.2979755E0,-1.8136156E-3,-1.562323E-1,4.8541646E0,-4.051566E-1,4.78086E0,6.185204E-1,5.012365E0,-4.6900347E-1,-5.254489E-1,-3.116508E-2,1.075882E0,-4.863405E-2,-1.4458948E0,2.8264252E-2,2.8555908E0,5.3832465E-1,4.78086E0,-4.2087388E-1,-1.3705958E0,-4.690995E-1,4.8575726E0,-5.665034E-1,-1.4384843E0,-4.6873394E-1,4.902856E0,-2.799481E-1,6.713231E-2,1.4009975E0,1.440535E-3,-2.2350748E0,-8.3978796E-1,-4.6909153E-1,8.570865E-1,-1.82769E-2,3.4754854E-2,2.3699358E0,-8.339999E-1,2.535502E-2,2.931201E-1,-6.6476226E-1,-9.6829474E-2,1.8243005E-2,-4.5972805E-2,2.3064125E-2,-1.0410901E-1,5.6893963E-2,-4.735369E-3,8.976815E-2,-4.951481E-2,7.854681E-2,1.9871002E-2,7.139703E-2,7.8025484E-3,8.073791E-2,9.585706E-2,7.4946815E-3,2.6500104E-2,-1.0054823E-1,-8.860865E-2,-1.15934506E-1,-4.3908134E-2,-1.0266775E-1,-9.883728E-2,-7.318508E-2,-3.3992957E-2,-1.12128176E-1,-1.6804429E-2,-1.0189736E-1,-1.5009453E-2,-8.433371E-2,1.2336955E-1,3.6282282E-2,1.2507808E-1,7.1025506E-2,7.554864E-2,1.2587036E-1,1.0181133E-1,5.4318406E-2,5.58751E-2,1.2215062E-1],"split_indices":[26,6,3,6,32,1,8,31,31,19,1,6,5,0,8,20,0,22,2,29,4,7,2,5,0,2,0,5,8,22,4,6,4,11,1,3,4,35,4,7,1,0,1,3,4,2,0,0,4,5,0,2,2,0,0,0,0,0,0,0,0,0,0,0,0,0,0,0,0,0,0,0,0,0,0,0,0,0,0,0,0,0,0,0,0,0,0,0,0,0,0,0,0],"split_type":[0,0,0,0,0,0,0,0,0,0,0,0,0,0,0,0,0,0,0,0,0,0,0,0,0,0,0,0,0,0,0,0,0,0,0,0,0,0,0,0,0,0,0,0,0,0,0,0,0,0,0,0,0,0,0,0,0,0,0,0,0,0,0,0,0,0,0,0,0,0,0,0,0,0,0,0,0,0,0,0,0,0,0,0,0,0,0,0,0,0,0,0,0],"sum_hessian":[3.1037438E4,2.9506684E4,1.5307545E3,7.8452896E3,2.1661395E4,1.103129E3,4.2762558E2,2.2494832E3,5.595806E3,2.0848432E4,8.1296185E2,1.7767591E1,1.0853615E3,1.6831524E0,4.259424E2,2.218235E3,3.1248064E1,5.2573296E3,3.3847656E2,1.9958125E4,8.9030615E2,5.667247E2,2.4623715E2,1.5995647E1,1.7719449E0,1.0842773E3,1.0840286E0,1.4899872E2,2.769437E2,2.1442632E3,7.397195E1,4.147379E0,2.7100685E1,4.9321646E3,3.2516516E2,2.807941E2,5.7682472E1,1.9120377E4,8.37749E2,1.1510844E2,7.7519775E2,1.5904707E0,5.651342E2,1.6966292E2,7.657424E1,1.4902139E1,1.0935085E0,1.2336605E0,1.0830437E3,1.4794086E2,1.0578648E0,1.2965001E2,1.4729369E2,2.1113103E3,3.2952778E1,4.3780605E1,3.0191341E1,2.6913447E0,1.4560342E0,3.4135647E0,2.368712E1,4.7758643E3,1.5630026E2,8.141634E1,2.4374883E2,1.5649953E1,2.6514413E2,1.3284172E1,4.43983E1,1.84467E4,6.736777E2,7.807167E2,5.7032337E1,7.8922035E1,3.6186394E1,7.1332184E2,6.187591E1,1.5844597E0,5.6354974E2,1.1560885E0,1.6850682E2,2.304061E1,5.353363E1,1.3633265E1,1.2688737E0,1.0778563E3,5.187347E0,5.758596E0,1.4218225E2,1.1887604E2,1.0773974E1,4.1379156E0,1.4315576E2],"tree_param":{"num_deleted":"0","num_feature":"55","num_nodes":"93","size_leaf_vector":"1"}},{"base_weights":[-6.965182E-3,-6.496238E-2,1.1627777E0,3.4735907E-2,-6.312198E-1,1.1875741E0,1.089601E0,7.257154E-2,-1.0276799E0,-6.990093E-1,4.3904406E-1,1.0995774E0,1.2105746E0,1.0125337E0,1.1505919E0,1.1236154E-1,-1.0274804E0,-7.056735E-1,-1.0692861E0,-7.226297E-1,1.2050924E0,7.8715944E-1,2.7280745E-1,3.627981E-1,1.1077296E0,-1.529911E-3,1.2121956E0,1.0203923E0,-1.1540691E-2,8.07968E-1,1.1716938E0,1.5939762E-1,-9.055237E-1,-1.0798851E0,-8.4551346E-1,-7.589586E-1,4.995976E-1,-9.559544E-1,-1.1196346E0,-7.565869E-1,6.284409E-1,1.4993801E0,2.6164067E-1,-1.3221548E-1,9.502985E-1,-1.8939048E-1,3.730954E-1,-1.373258E-2,8.0984555E-2,9.813501E-1,1.1787068E0,1.2140194E0,5.503119E-1,1.0526012E0,7.250592E-1,-7.655509E-2,1.1467619E0,4.9870732E-1,1.1809596E0,2.0177498E-2,-9.964457E-2,-7.284245E-2,-9.72231E-2,-7.751291E-2,-1.08968616E-1,-1.7302835E-2,-8.835068E-2,-5.0815787E-2,-9.1446795E-2,1.2625001E-1,-2.2983504E-2,-4.5515593E-2,-9.795727E-2,-1.12313725E-1,1.41265495E-2,-7.803021E-2,1.2031897E-1,3.933348E-2,8.8209964E-2,1.5038182E-2,1.695228E-1,6.639103E-2,-3.7281018E-2,-3.5748094E-2,9.509816E-2,1.0300757E-1,-7.09112E-2,-3.9766695E-2,4.795682E-2,-3.81586E-2,4.271396E-2,1.02314316E-1,-7.84133E-3,6.387736E-2,1.19433776E-1,1.2148582E-1,3.0320419E-2,-1.8266132E-2,9.03163E-2,1.10974364E-1,8.36521E-2,-3.7438248E-3,9.25271E-2,-6.4715624E-2,5.6075495E-2,1.22025214E-1,3.64654E-2,-1.3012938E-2,9.198589E-2,1.1850311E-1,2.2969479E-2],"categories":[],"categories_nodes":[],"categories_segments":[],"categories_sizes":[],"default_left":[0,0,0,0,0,0,0,0,0,0,0,0,0,0,0,0,0,0,0,0,0,0,0,0,0,0,0,0,0,0,0,0,0,0,0,0,0,0,0,0,0,0,0,0,0,0,0,0,0,0,0,0,0,0,0,0,0,0,0,0,0,0,0,0,0,0,0,0,0,0,0,0,0,0,0,0,0,0,0,0,0,0,0,0,0,0,0,0,0,0,0,0,0,0,0,0,0,0,0,0,0,0,0,0,0,0,0,0,0,0,0],"id":11,"left_children":[1,3,5,7,9,11,13,15,17,19,21,23,25,27,29,31,33,35,37,39,41,43,45,47,49,-1,51,53,-1,55,57,59,61,63,65,67,69,71,73,75,77,79,81,83,85,87,89,-1,-1,91,93,95,97,99,101,103,105,107,109,-1,-1,-1,-1,-1,-1,-1,-1,-1,-1,-1,-1,-1,-1,-1,-1,-1,-1,-1,-1,-1,-1,-1,-1,-1,-1,-1,-1,-1,-1,-1,-1,-1,-1,-1,-1,-1,-1,-1,-1,-1,-1,-1,-1,-1,-1,-1,-1,-1,-1,-1,-1],"loss_changes":[2.081039E3,1.6499567E3,1.3352051E0,9.990292E2,3.177495E2,8.3703613E-1,6.157837E-1,1.0505206E3,1.0695679E1,1.8595093E2,1.4902901E1,9.968567E-1,1.6864014E0,1.6752319E0,5.293884E-1,1.1090256E3,7.076355E0,6.8486366E0,3.2373657E0,1.8698608E2,1.37114105E1,1.2709511E1,8.33707E0,1.013461E0,9.0493774E-1,0E0,3.4375E-1,8.976135E-1,0E0,4.6026096E0,5.9643555E-1,1.0845923E3,1.1378967E1,1.0875244E0,4.7512207E0,3.3132782E0,2.9991164E0,2.3817139E0,2.4414062E0,1.8526904E2,5.62965E0,9.918907E0,3.6391594E0,3.6394103E0,1.0179726E1,4.713256E0,6.15353E0,0E0,0E0,4.005768E0,4.3727112E-1,2.6965332E-1,1.2337227E0,9.881439E-1,3.1462574E0,2.2211027E0,1.8475342E-1,1.2618479E0,4.512329E-1,0E0,0E0,0E0,0E0,0E0,0E0,0E0,0E0,0E0,0E0,0E0,0E0,0E0,0E0,0E0,0E0,0E0,0E0,0E0,0E0,0E0,0E0,0E0,0E0,0E0,0E0,0E0,0E0,0E0,0E0,0E0,0E0,0E0,0E0,0E0,0E0,0E0,0E0,0E0,0E0,0E0,0E0,0E0,0E0,0E0,0E0,0E0,0E0,0E0,0E0,0E0,0E0],"parents":[2147483647,0,0,1,1,2,2,3,3,4,4,5,5,6,6,7,7,8,8,9,9,10,10,11,11,12,12,13,13,14,14,15,15,16,16,17,17,18,18,19,19,20,20,21,21,22,22,23,23,24,24,26,26,27,27,29,29,30,30,31,31,32,32,33,33,34,34,35,35,36,36,37,37,38,38,39,39,40,40,41,41,42,42,43,43,44,44,45,45,46,46,49,49,50,50,51,51,52,52,53,53,54,54,55,55,56,56,57,57,58,58],"right_children":[2,4,6,8,10,12,14,16,18,20,22,24,26,28,30,32,34,36,38,40,42,44,46,48,50,-1,52,54,-1,56,58,60,62,64,66,68,70,72,74,76,78,80,82,84,86,88,90,-1,-1,92,94,96,98,100,102,104,106,108,110,-1,-1,-1,-1,-1,-1,-1,-1,-1,-1,-1,-1,-1,-1,-1,-1,-1,-1,-1,-1,-1,-1,-1,-1,-1,-1,-1,-1,-1,-1,-1,-1,-1,-1,-1,-1,-1,-1,-1,-1,-1,-1,-1,-1,-1,-1,-1,-1,-1,-1,-1,-1],"split_conditions":[4.81745E0,1.1802738E0,7.7208686E-1,4.8088083E0,4.78086E0,-1.262615E-1,8.2323796E-1,4.968897E0,-8.5897696E-1,4.8541646E0,-4.6907923E-1,-5.1900196E-1,-1.3231983E0,1.5051061E0,8.25816E-1,4.8258014E0,-3.116508E-2,1.1603491E0,-4.6410936E-1,4.86304E0,-3.2754558E-1,-1.6610765E0,-1.296573E0,6.4495094E-2,-4.6777683E-1,-1.529911E-3,1.3905277E0,2.9453213E0,-1.1540691E-2,-1.8011878E-1,-1.2064732E0,4.902856E0,-4.5863652E-1,-4.9321422E-1,-5.0234735E-1,-3.7617773E-1,-2.506317E-1,-6.335351E-1,1.7325917E0,4.8231244E0,-4.07327E-1,-4.9213973E-1,-7.2849184E-1,3.6986036E0,-1.7968684E-1,6.0298234E-1,-4.6904212E-1,-1.373258E-2,8.0984555E-2,5.4671435E0,-5.066453E-1,2.5888495E0,-4.6909815E-1,7.587283E-1,5.4060817E-1,-3.008805E-1,1.0745393E0,-3.5299328E-1,3.2979755E0,2.0177498E-2,-9.964457E-2,-7.284245E-2,-9.72231E-2,-7.751291E-2,-1.08968616E-1,-1.7302835E-2,-8.835068E-2,-5.0815787E-2,-9.1446795E-2,1.2625001E-1,-2.2983504E-2,-4.5515593E-2,-9.795727E-2,-1.12313725E-1,1.41265495E-2,-7.803021E-2,1.2031897E-1,3.933348E-2,8.8209964E-2,1.5038182E-2,1.695228E-1,6.639103E-2,-3.7281018E-2,-3.5748094E-2,9.509816E-2,1.0300757E-1,-7.09112E-2,-3.9766695E-2,4.795682E-2,-3.81586E-2,4.271396E-2,1.02314316E-1,-7.84133E-3,6.387736E-2,1.19433776E-1,1.2148582E-1,3.0320419E-2,-1.8266132E-2,9.03163E-2,1.10974364E-1,8.36521E-2,-3.7438248E-3,9.25271E-2,-6.4715624E-2,5.6075495E-2,1.22025214E-1,3.64654E-2,-1.3012938E-2,9.198589E-2,1.1850311E-1,2.2969479E-2],"split_indices":[26,0,3,23,22,1,6,32,3,14,4,7,2,3,3,19,2,0,4,31,5,3,9,0,0,0,2,40,0,9,9,35,4,7,7,2,9,6,7,12,9,7,3,45,3,8,4,0,0,42,7,4,4,6,6,7,6,7,5,0,0,0,0,0,0,0,0,0,0,0,0,0,0,0,0,0,0,0,0,0,0,0,0,0,0,0,0,0,0,0,0,0,0,0,0,0,0,0,0,0,0,0,0,0,0,0,0,0,0,0,0],"split_type":[0,0,0,0,0,0,0,0,0,0,0,0,0,0,0,0,0,0,0,0,0,0,0,0,0,0,0,0,0,0,0,0,0,0,0,0,0,0,0,0,0,0,0,0,0,0,0,0,0,0,0,0,0,0,0,0,0,0,0,0,0,0,0,0,0,0,0,0,0,0,0,0,0,0,0,0,0,0,0,0,0,0,0,0,0,0,0,0,0,0,0,0,0,0,0,0,0,0,0,0,0,0,0,0,0,0,0,0,0,0,0],"sum_hessian":[3.0672762E4,2.922471E4,1.4480504E3,2.4850363E4,4.3743477E3,1.0701812E3,3.7786932E2,2.3996705E4,8.536588E2,4.1141113E3,2.602368E2,2.3187303E2,8.383081E2,1.7470964E2,2.031597E2,2.3159885E4,8.368189E2,9.973447E1,7.539243E2,4.0643137E3,4.9797424E1,8.290033E1,1.7733646E2,3.0354776E0,2.2883754E2,1.0959305E0,8.3721216E2,1.7359552E2,1.1141247E0,1.4065915E1,1.8909378E2,2.2137752E4,1.0221335E3,6.4587775E2,1.9094113E2,9.586651E1,3.8679583E0,2.3805743E2,5.158669E2,3.9650967E3,9.921691E1,3.7508327E1,1.2289098E1,1.2521966E1,7.0378365E1,3.145964E1,1.4587682E2,1.759686E0,1.2757916E0,8.7631035E1,1.4120651E2,8.3407983E2,3.1323442E0,1.5421298E2,1.9382538E1,4.1098795E0,9.956036E0,3.3126657E0,1.8578111E2,2.1355604E4,7.821476E2,2.8292474E2,7.3920874E2,2.2619955E1,6.232578E2,1.0507725E1,1.804334E2,3.8324932E1,5.754158E1,1.5334008E0,2.3345575E0,1.16344185E1,2.2642302E2,5.145468E2,1.3200877E0,3.9182837E3,4.681318E1,5.2815228E1,4.6401684E1,4.9792376E0,3.252909E1,7.49225E0,4.7968473E0,1.0920812E1,1.6011542E0,6.751194E1,2.866428E0,2.4299633E1,7.160008E0,9.343408E0,1.365334E2,8.433956E1,3.2914715E0,5.1507974E0,1.3605571E2,8.329789E2,1.1009519E0,1.1746291E0,1.9577152E0,1.1868973E2,3.5523254E1,4.200007E0,1.5182531E1,2.1602757E0,1.9496037E0,8.588787E0,1.3672491E0,1.6058813E0,1.7067844E0,1.8474464E2,1.036466E0],"tree_param":{"num_deleted":"0","num_feature":"55","num_nodes":"111","size_leaf_vector":"1"}},{"base_weights":[-6.881609E-3,-5.9754156E-2,1.1135813E0,-7.2433406E-1,1.7168654E-2,1.1395534E0,1.0376698E0,-8.723932E-1,-4.5113635E-1,4.888827E-2,-1.1751353E-1,1.0491035E0,1.1634101E0,9.9541193E-1,1.1682281E0,-8.93797E-1,5.2133125E-1,-2.7927622E-1,-1.0651414E0,8.0421664E-2,-1.2232802E0,1.1442827E0,9.4560915E-1,-1.4496882E-3,1.1650678E0,4.045978E-3,9.9945486E-1,1.1876981E0,3.869011E-1,-9.234431E-1,-7.2031625E-2,1.0020843E0,2.3704696E-1,-1.1363218E-1,-7.1888816E-1,-1.0895346E0,1.2895721E-1,1.18452094E-1,-9.4619364E-1,-1.2600292E0,-1.1280119E-1,2.2463614E-2,1.1515924E0,4.2700344E-1,9.937818E-1,1.1669043E0,5.229666E-1,9.035741E-1,1.0713536E0,1.198389E0,2.3081137E-2,-2.2111246E-2,7.761982E-2,-9.4029926E-2,-1.1406909E-3,3.432844E-2,-5.1181305E-2,6.490287E-2,1.4070058E-1,4.6202045E-2,-8.810025E-2,-8.7108527E-4,-9.8522805E-2,-7.4415095E-2,1.4174744E-1,-1.1188233E-1,-6.25662E-2,1.5606748E-2,-1.0037934E-1,-5.5951584E-2,-1.0157918E-1,-1.2675089E-1,-6.6021666E-2,2.3380177E-2,1.15897514E-1,8.3856344E-2,-5.9899684E-2,1.0561975E-1,5.6211054E-2,1.1677559E-1,2.8900629E-2,-2.0346161E-2,8.818098E-2,9.135752E-2,-1.0912671E-2,5.5659752E-2,1.1020485E-1,1.2085213E-1,4.1101538E-2],"categories":[],"categories_nodes":[],"categories_segments":[],"categories_sizes":[],"default_left":[0,0,0,0,0,0,0,0,0,0,0,0,0,0,0,0,0,0,0,0,0,0,0,0,0,0,0,0,0,0,0,0,0,0,0,0,0,0,0,0,0,0,0,0,0,0,0,0,0,0,0,0,0,0,0,0,0,0,0,0,0,0,0,0,0,0,0,0,0,0,0,0,0,0,0,0,0,0,0,0,0,0,0,0,0,0,0,0,0],"id":12,"left_children":[1,3,5,7,9,11,13,15,17,19,-1,21,23,25,27,29,31,33,35,37,39,41,43,-1,45,-1,47,49,51,53,55,57,59,61,63,65,-1,67,69,71,-1,-1,73,75,77,79,81,83,85,87,-1,-1,-1,-1,-1,-1,-1,-1,-1,-1,-1,-1,-1,-1,-1,-1,-1,-1,-1,-1,-1,-1,-1,-1,-1,-1,-1,-1,-1,-1,-1,-1,-1,-1,-1,-1,-1,-1,-1],"loss_changes":[1.7973934E3,1.4811357E3,1.5130615E0,1.2118237E2,9.8215485E2,9.556885E-1,8.216553E-1,5.858142E1,1.1139415E2,1.0148711E3,0E0,1.091507E0,1.5571289E0,1.0348206E0,7.9089355E-1,4.6686035E1,3.8759098E0,6.0237267E1,1.4680176E1,9.63886E2,7.2088623E-1,4.820099E-1,2.3604355E0,0E0,3.1860352E-1,0E0,9.435425E-1,5.3887177E-1,9.9571884E-1,2.8463501E1,1.2578709E1,6.413946E-1,5.4938393E0,5.5119686E1,1.3279602E1,2.4151611E0,0E0,1.0050234E3,2.3165161E1,1.105957E0,0E0,0E0,4.6809387E-1,5.243247E0,2.134056E0,2.4914551E-1,1.2374133E0,1.3678818E0,1.8053131E0,1.3032532E-1,0E0,0E0,0E0,0E0,0E0,0E0,0E0,0E0,0E0,0E0,0E0,0E0,0E0,0E0,0E0,0E0,0E0,0E0,0E0,0E0,0E0,0E0,0E0,0E0,0E0,0E0,0E0,0E0,0E0,0E0,0E0,0E0,0E0,0E0,0E0,0E0,0E0,0E0,0E0],"parents":[2147483647,0,0,1,1,2,2,3,3,4,4,5,5,6,6,7,7,8,8,9,9,11,11,12,12,13,13,14,14,15,15,16,16,17,17,18,18,19,19,20,20,21,21,22,22,24,24,26,26,27,27,28,28,29,29,30,30,31,31,32,32,33,33,34,34,35,35,37,37,38,38,39,39,42,42,43,43,44,44,45,45,46,46,47,47,48,48,49,49],"right_children":[2,4,6,8,10,12,14,16,18,20,-1,22,24,26,28,30,32,34,36,38,40,42,44,-1,46,-1,48,50,52,54,56,58,60,62,64,66,-1,68,70,72,-1,-1,74,76,78,80,82,84,86,88,-1,-1,-1,-1,-1,-1,-1,-1,-1,-1,-1,-1,-1,-1,-1,-1,-1,-1,-1,-1,-1,-1,-1,-1,-1,-1,-1,-1,-1,-1,-1,-1,-1,-1,-1,-1,-1,-1,-1],"split_conditions":[4.81745E0,-7.3072064E-1,7.7208686E-1,-4.4693154E-1,4.7568994E0,-1.262615E-1,-6.271738E-1,4.86304E0,1.4693418E0,5.323133E0,-1.1751353E-1,3.4118402E-1,-1.3231983E0,-1.434565E0,7.4520063E-1,4.8541646E0,-5.5636525E-1,1.401926E0,1.6020957E0,4.8088083E0,1.2571259E0,-1.5927272E0,-5.0019836E-1,-1.4496882E-3,1.3905277E0,4.045978E-3,8.2323796E-1,1.4744037E0,3.3572078E-1,4.78086E0,-5.207711E-1,-5.909425E-1,-8.103892E-1,5.323133E0,4.8572316E0,2.8380218E0,1.2895721E-1,4.968897E0,-8.5897696E-1,2.2570584E0,-1.1280119E-1,2.2463614E-2,-9.876955E-1,8.0376315E-1,2.752341E0,2.5888495E0,-4.8009205E-1,1.5051061E0,8.25816E-1,2.0013306E0,2.3081137E-2,-2.2111246E-2,7.761982E-2,-9.4029926E-2,-1.1406909E-3,3.432844E-2,-5.1181305E-2,6.490287E-2,1.4070058E-1,4.6202045E-2,-8.810025E-2,-8.7108527E-4,-9.8522805E-2,-7.4415095E-2,1.4174744E-1,-1.1188233E-1,-6.25662E-2,1.5606748E-2,-1.0037934E-1,-5.5951584E-2,-1.0157918E-1,-1.2675089E-1,-6.6021666E-2,2.3380177E-2,1.15897514E-1,8.3856344E-2,-5.9899684E-2,1.0561975E-1,5.6211054E-2,1.1677559E-1,2.8900629E-2,-2.0346161E-2,8.818098E-2,9.135752E-2,-1.0912671E-2,5.5659752E-2,1.1020485E-1,1.2085213E-1,4.1101538E-2],"split_indices":[26,6,3,1,16,1,0,31,7,24,0,6,2,8,2,20,5,4,1,23,0,9,7,0,2,0,6,3,1,22,5,5,6,24,28,46,0,32,3,4,0,0,0,8,39,4,5,3,3,5,0,0,0,0,0,0,0,0,0,0,0,0,0,0,0,0,0,0,0,0,0,0,0,0,0,0,0,0,0,0,0,0,0,0,0,0,0,0,0],"split_type":[0,0,0,0,0,0,0,0,0,0,0,0,0,0,0,0,0,0,0,0,0,0,0,0,0,0,0,0,0,0,0,0,0,0,0,0,0,0,0,0,0,0,0,0,0,0,0,0,0,0,0,0,0,0,0,0,0,0,0,0,0,0,0,0,0,0,0,0,0,0,0,0,0,0,0,0,0,0,0,0,0,0,0,0,0,0,0,0,0],"sum_hessian":[3.0337867E4,2.8971695E4,1.3661735E3,3.004624E3,2.596707E4,1.00746906E3,3.5870438E2,1.9471664E3,1.0574575E3,2.5295088E4,6.719823E2,2.1965343E2,7.878156E2,2.775077E2,8.119669E1,1.9180688E3,2.9097574E1,8.273398E2,2.301177E2,2.4684176E4,6.109129E2,1.0918465E2,1.1046879E2,1.0962405E0,7.8671936E2,1.2163222E0,2.7629135E2,7.871507E1,2.4816175E0,1.8511624E3,6.690654E1,9.874268E0,1.9223307E1,6.018308E2,2.2550899E2,2.2829008E2,1.8276304E0,2.380328E4,8.808954E2,4.3203336E2,1.7887958E2,1.1112207E0,1.08073425E2,1.0227545E1,1.0024124E2,7.8366064E2,3.058708E0,1.2421333E2,1.5207802E2,7.759575E1,1.1193259E0,1.1373298E0,1.3442876E0,1.8175397E3,3.3622612E1,3.452326E1,3.2383278E1,6.665445E0,3.208823E0,1.6491629E1,2.731677E0,5.380689E2,6.3761887E1,2.2351753E2,1.9914498E0,2.1340396E2,1.4886126E1,2.303215E4,7.711299E2,1.3574634E2,7.4514905E2,4.2561276E2,6.4205956E0,1.1231058E0,1.0695032E2,7.42988E0,2.7976644E0,8.631423E1,1.39270115E1,7.825714E2,1.0892715E0,1.1545298E0,1.9041781E0,1.2309556E2,1.1177739E0,9.634846E0,1.4244318E2,7.608182E1,1.5139312E0],"tree_param":{"num_deleted":"0","num_feature":"55","num_nodes":"89","size_leaf_vector":"1"}},{"base_weights":[-6.771478E-3,-5.492672E-2,1.0687432E0,2.0300396E-2,-6.737661E-1,1.0975537E0,9.933529E-1,5.877005E-2,-1.1439941E-1,-7.156443E-1,2.7598312E-1,1.0043437E0,1.1223722E0,-1.1161342E-2,9.986018E-1,9.350017E-2,-1.1436601E0,-7.4631846E-1,6.521058E-1,2.1092513E-1,1.4077542E0,1.0995976E0,8.9625543E-1,-1.3736797E-3,1.1241255E0,1.1292677E0,9.5736724E-1,1.3266124E-1,-8.86326E-1,-9.5601E-1,-1.1930287E0,-7.8420377E-1,3.8499495E-1,5.0721323E-1,1.7193584E0,-1.6170412E-1,3.57694E-1,1.8786138E0,-3.417109E-2,2.141693E-2,1.1069913E0,3.9547703E-1,9.4718343E-1,1.1250718E0,2.393235E-2,6.700187E-1,1.1556356E0,8.720558E-1,1.0567311E0,1.8140512E-2,-7.188552E-2,-8.103827E-2,-9.397033E-2,4.600716E-3,-9.674054E-2,-1.22802995E-1,-1.0949886E-1,-8.1891716E-2,5.2275814E-2,2.7063528E-2,8.922517E-2,2.2111809E-2,1.0407193E-1,2.0800212E-1,-1.8504528E-2,2.0447325E-2,-4.711654E-2,8.4552355E-3,6.4860255E-2,8.760906E-3,2.400373E-1,2.1265294E-2,1.1144745E-1,7.946132E-2,-5.422802E-2,3.3177674E-2,9.8914154E-2,1.127002E-1,4.9706962E-2,-6.0799014E-2,1.065249E-1,1.16601706E-1,4.5007404E-2,7.789033E-2,1.077978E-1,3.849209E-2,1.0734592E-1],"categories":[],"categories_nodes":[],"categories_segments":[],"categories_sizes":[],"default_left":[0,0,0,0,0,0,0,0,0,0,0,0,0,0,0,0,0,0,0,0,0,0,0,0,0,0,0,0,0,0,0,0,0,0,0,0,0,0,0,0,0,0,0,0,0,0,0,0,0,0,0,0,0,0,0,0,0,0,0,0,0,0,0,0,0,0,0,0,0,0,0,0,0,0,0,0,0,0,0,0,0,0,0,0,0,0,0],"id":13,"left_children":[1,3,5,7,9,11,13,15,-1,17,19,21,23,-1,25,27,29,31,33,35,37,39,41,-1,43,45,47,49,51,53,55,57,59,61,63,65,67,69,-1,-1,71,73,75,77,-1,79,81,83,85,-1,-1,-1,-1,-1,-1,-1,-1,-1,-1,-1,-1,-1,-1,-1,-1,-1,-1,-1,-1,-1,-1,-1,-1,-1,-1,-1,-1,-1,-1,-1,-1,-1,-1,-1,-1,-1,-1],"loss_changes":[1.5557172E3,1.3384526E3,1.7058105E0,1.1482756E3,1.241405E2,1.005249E0,2.236847E0,1.0364531E3,0E0,1.2571521E2,9.446187E0,1.1081085E0,1.4485474E0,0E0,8.845215E-1,9.2565234E2,5.313904E0,1.2544763E2,9.334898E0,6.9656343E0,6.421981E0,4.4168854E-1,2.1927185E0,0E0,3.3215332E-1,2.1797943E-1,1.4848938E0,9.628478E2,2.996643E0,1.7590637E0,5.343628E-1,1.286217E2,5.285825E0,8.856842E0,5.516697E0,4.218833E0,7.1701765E0,5.0999393E0,0E0,0E0,4.495697E-1,4.5515437E0,2.0126572E0,3.0944824E-1,0E0,4.097052E0,3.2714844E-2,2.2000198E0,1.0074768E0,0E0,0E0,0E0,0E0,0E0,0E0,0E0,0E0,0E0,0E0,0E0,0E0,0E0,0E0,0E0,0E0,0E0,0E0,0E0,0E0,0E0,0E0,0E0,0E0,0E0,0E0,0E0,0E0,0E0,0E0,0E0,0E0,0E0,0E0,0E0,0E0,0E0,0E0],"parents":[2147483647,0,0,1,1,2,2,3,3,4,4,5,5,6,6,7,7,9,9,10,10,11,11,12,12,14,14,15,15,16,16,17,17,18,18,19,19,20,20,21,21,22,22,24,24,25,25,26,26,27,27,28,28,29,29,30,30,31,31,32,32,33,33,34,34,35,35,36,36,37,37,40,40,41,41,42,42,43,43,45,45,46,46,47,47,48,48],"right_children":[2,4,6,8,10,12,14,16,-1,18,20,22,24,-1,26,28,30,32,34,36,38,40,42,-1,44,46,48,50,52,54,56,58,60,62,64,66,68,70,-1,-1,72,74,76,78,-1,80,82,84,86,-1,-1,-1,-1,-1,-1,-1,-1,-1,-1,-1,-1,-1,-1,-1,-1,-1,-1,-1,-1,-1,-1,-1,-1,-1,-1,-1,-1,-1,-1,-1,-1,-1,-1,-1,-1,-1,-1],"split_conditions":[4.81745E0,9.2305195E-1,7.260333E-1,4.7568994E0,4.78086E0,-1.262615E-1,-1.434565E0,5.323133E0,-1.1439941E-1,4.8541646E0,1.1727239E0,3.4118402E-1,-1.3231983E0,-1.1161342E-2,-5.361979E-1,5.012365E0,-7.568277E-1,4.86304E0,2.9708514E0,-9.6359545E-1,8.2528785E-2,-1.5927272E0,-5.0019836E-1,-1.3736797E-3,2.5409622E0,-6.534648E-1,5.3832465E-1,4.9721746E0,-3.2881725E-1,-6.157883E-1,1.2571259E0,4.8131237E0,9.297928E-1,4.7016686E-1,-2.2512896E-1,-5.2585596E-1,-4.6474022E-1,-5.522124E-1,-3.417109E-2,2.141693E-2,-2.0448468E0,8.0376315E-1,-1.3002399E0,1.3905277E0,2.393235E-2,8.6803174E-1,1.7107974E0,1.1517916E0,-6.6476226E-1,1.8140512E-2,-7.188552E-2,-8.103827E-2,-9.397033E-2,4.600716E-3,-9.674054E-2,-1.22802995E-1,-1.0949886E-1,-8.1891716E-2,5.2275814E-2,2.7063528E-2,8.922517E-2,2.2111809E-2,1.0407193E-1,2.0800212E-1,-1.8504528E-2,2.0447325E-2,-4.711654E-2,8.4552355E-3,6.4860255E-2,8.760906E-3,2.400373E-1,2.1265294E-2,1.1144745E-1,7.946132E-2,-5.422802E-2,3.3177674E-2,9.8914154E-2,1.127002E-1,4.9706962E-2,-6.0799014E-2,1.065249E-1,1.16601706E-1,4.5007404E-2,7.789033E-2,1.077978E-1,3.849209E-2,1.0734592E-1],"split_indices":[26,4,3,16,22,1,8,24,0,14,1,6,2,0,8,29,6,31,41,9,8,9,7,0,4,1,8,30,7,0,0,13,0,9,7,5,7,2,0,0,1,8,1,2,0,3,1,9,2,0,0,0,0,0,0,0,0,0,0,0,0,0,0,0,0,0,0,0,0,0,0,0,0,0,0,0,0,0,0,0,0,0,0,0,0,0,0],"split_type":[0,0,0,0,0,0,0,0,0,0,0,0,0,0,0,0,0,0,0,0,0,0,0,0,0,0,0,0,0,0,0,0,0,0,0,0,0,0,0,0,0,0,0,0,0,0,0,0,0,0,0,0,0,0,0,0,0,0,0,0,0,0,0,0,0,0,0,0,0,0,0,0,0,0,0,0,0,0,0,0,0,0,0,0,0,0,0],"sum_hessian":[3.0035848E4,2.874956E4,1.2862878E3,2.5634371E4,3.1151887E3,9.208324E2,3.6545544E2,2.481539E4,8.1898004E2,2.9838645E3,1.3132402E2,2.0234813E2,7.1848425E2,1.6319997E0,3.6382343E2,2.4119658E4,6.957325E2,2.9188586E3,6.500606E1,1.253073E2,6.016716E0,1.0268389E2,9.966424E1,1.0965333E0,7.173877E2,8.0942474E1,2.8288095E2,2.319354E4,9.2611993E2,1.4915576E2,5.465767E2,2.8245762E3,9.428234E1,5.853453E1,6.4715257E0,3.5379944E1,8.992736E1,4.682597E0,1.3341193E0,1.0985131E0,1.0158538E2,1.0009136E1,8.96551E1,7.1635004E2,1.0376972E0,5.829019E0,7.511346E1,1.5746323E2,1.25417725E2,2.1938486E4,1.2550513E3,3.889367E2,5.371833E2,1.6430444E0,1.4751271E2,3.9428674E2,1.5229001E2,2.7518591E3,7.271696E1,7.8188484E1,1.6093857E1,3.9022816E1,1.9511711E1,5.3635426E0,1.107983E0,1.6360388E1,1.9019554E1,4.704563E1,4.2881725E1,1.3198733E0,3.3627236E0,1.0870576E0,1.0049832E2,7.1279316E0,2.8812053E0,6.291017E0,8.336408E1,7.1336285E2,2.9871614E0,1.249699E0,4.5793204E0,7.338114E1,1.7323132E0,1.1171118E2,4.575205E1,3.6303477E0,1.21787384E2],"tree_param":{"num_deleted":"0","num_feature":"55","num_nodes":"87","size_leaf_vector":"1"}},{"base_weights":[-6.627788E-3,-5.047541E-2,1.0274158E0,-6.766266E-1,1.593722E-2,1.0563283E0,9.446741E-1,-8.3363867E-1,-3.993166E-1,-3.3074766E-2,6.6152704E-1,9.592296E-1,1.082496E0,9.0353054E-1,1.1019477E0,-8.553911E-1,4.4300008E-1,-2.4315955E-1,-1.0317917E0,-8.534566E-2,6.2956685E-1,7.761078E-1,5.94526E-1,8.0257213E-1,1.028259E0,-1.301648E-3,1.0842539E0,8.0444384E-1,9.803977E-1,1.1279695E0,2.5051564E-1,-8.8719547E-1,-6.524608E-2,9.012554E-1,1.7648914E-1,-2.720609E-1,1.7992706E0,-1.0596921E0,1.14297085E-1,-1.3149542E-1,6.143553E-1,5.9321177E-1,8.019653E-1,1.4022838E0,7.552595E-1,9.476384E-1,5.6476307E-1,8.435537E-1,-1.4805725E-1,6.311102E-1,1.0669509E0,1.0853392E0,2.0783147E-2,8.942986E-1,6.047628E-1,4.6641788E-1,1.0117123E0,1.1419564E0,1.727678E-2,-2.8515074E-2,6.686356E-2,-9.117945E-2,-2.4357703E-2,3.0840296E-2,-4.8099514E-2,5.660972E-2,1.300611E-1,3.8480744E-2,-8.463347E-2,-3.0694852E-2,1.2384813E-1,2.2558753E-1,7.994832E-3,-1.0939505E-1,-5.4624606E-2,-1.9184774E-2,5.2928872E-2,5.117414E-2,8.864853E-2,6.374814E-2,4.2698186E-2,8.659854E-2,2.5062725E-2,1.5377717E-1,-1.5305947E-2,4.7387283E-2,8.032595E-2,1.2098036E-1,7.5742E-2,3.9495837E-2,6.112575E-2,4.704853E-2,9.294935E-2,-1.0289224E-1,7.5905405E-2,9.2666194E-2,-8.792278E-2,9.30329E-2,1.1723863E-1,1.0872691E-1,4.6909582E-2,9.522381E-2,4.2069796E-2,6.6211864E-2,-7.727933E-2,-6.361776E-2,9.673447E-2,5.3923767E-2,1.0410893E-1,1.1839914E-1,6.593798E-2],"categories":[],"categories_nodes":[],"categories_segments":[],"categories_sizes":[],"default_left":[0,0,0,0,0,0,0,0,0,0,0,0,0,0,0,0,0,0,0,0,0,0,0,0,0,0,0,0,0,0,0,0,0,0,0,0,0,0,0,0,0,0,0,0,0,0,0,0,0,0,0,0,0,0,0,0,0,0,0,0,0,0,0,0,0,0,0,0,0,0,0,0,0,0,0,0,0,0,0,0,0,0,0,0,0,0,0,0,0,0,0,0,0,0,0,0,0,0,0,0,0,0,0,0,0,0,0,0,0,0,0],"id":14,"left_children":[1,3,5,7,9,11,13,15,17,19,21,23,25,27,29,31,33,35,37,39,41,43,45,47,49,-1,51,53,55,57,59,61,63,65,67,69,71,73,-1,75,77,79,81,83,85,87,89,91,93,95,97,99,-1,101,103,105,107,109,-1,-1,-1,-1,-1,-1,-1,-1,-1,-1,-1,-1,-1,-1,-1,-1,-1,-1,-1,-1,-1,-1,-1,-1,-1,-1,-1,-1,-1,-1,-1,-1,-1,-1,-1,-1,-1,-1,-1,-1,-1,-1,-1,-1,-1,-1,-1,-1,-1,-1,-1,-1,-1],"loss_changes":[1.3489254E3,1.1868577E3,1.8973389E0,1.18834595E2,8.165283E2,1.2189331E0,1.0935059E0,4.888098E1,9.7659134E1,8.308171E2,1.3517456E1,1.3091736E0,1.3468018E0,1.2026978E0,1.0997849E0,4.3106567E1,3.4950237E0,4.7497375E1,1.3103058E1,7.179801E2,1.0516174E1,7.669281E0,1.1585236E1,2.6543121E0,1.3772888E0,0E0,4.3164062E-1,1.6085129E0,1.8243256E0,6.0775757E-1,8.9300025E-1,2.5918945E1,1.0640532E1,7.037277E-1,4.6214595E0,4.1807495E1,8.64587E0,2.815277E0,0E0,8.318903E2,3.796466E1,1.0414429E1,1.0463211E1,4.5292587E0,8.388123E0,3.480812E0,8.1753845E0,1.5630722E0,3.6048121E0,7.1958194E0,6.4009094E-1,3.1036377E-1,0E0,1.809082E0,3.6930752E0,6.165224E0,1.2931976E0,4.2034912E-1,0E0,0E0,0E0,0E0,0E0,0E0,0E0,0E0,0E0,0E0,0E0,0E0,0E0,0E0,0E0,0E0,0E0,0E0,0E0,0E0,0E0,0E0,0E0,0E0,0E0,0E0,0E0,0E0,0E0,0E0,0E0,0E0,0E0,0E0,0E0,0E0,0E0,0E0,0E0,0E0,0E0,0E0,0E0,0E0,0E0,0E0,0E0,0E0,0E0,0E0,0E0,0E0,0E0],"parents":[2147483647,0,0,1,1,2,2,3,3,4,4,5,5,6,6,7,7,8,8,9,9,10,10,11,11,12,12,13,13,14,14,15,15,16,16,17,17,18,18,19,19,20,20,21,21,22,22,23,23,24,24,26,26,27,27,28,28,29,29,30,30,31,31,32,32,33,33,34,34,35,35,36,36,37,37,39,39,40,40,41,41,42,42,43,43,44,44,45,45,46,46,47,47,48,48,49,49,50,50,51,51,53,53,54,54,55,55,56,56,57,57],"right_children":[2,4,6,8,10,12,14,16,18,20,22,24,26,28,30,32,34,36,38,40,42,44,46,48,50,-1,52,54,56,58,60,62,64,66,68,70,72,74,-1,76,78,80,82,84,86,88,90,92,94,96,98,100,-1,102,104,106,108,110,-1,-1,-1,-1,-1,-1,-1,-1,-1,-1,-1,-1,-1,-1,-1,-1,-1,-1,-1,-1,-1,-1,-1,-1,-1,-1,-1,-1,-1,-1,-1,-1,-1,-1,-1,-1,-1,-1,-1,-1,-1,-1,-1,-1,-1,-1,-1,-1,-1,-1,-1,-1,-1],"split_conditions":[4.81745E0,-7.3072064E-1,7.7208686E-1,-4.4693154E-1,4.8572316E0,-1.262615E-1,-5.673999E-1,4.86304E0,1.4693418E0,4.86304E0,-9.404118E-2,-6.271738E-1,-1.3231983E0,8.2323796E-1,7.4520063E-1,4.8541646E0,-5.5636525E-1,4.8231244E0,1.6020957E0,4.8575726E0,8.491766E-1,-8.5897696E-1,-5.4427755E-1,5.4671435E0,-4.9966115E-1,-1.301648E-3,3.2979755E0,7.314422E-1,8.25816E-1,1.4590526E0,1.0292193E0,4.8088083E0,-5.207711E-1,-5.909425E-1,-8.103892E-1,4.8572316E0,-4.2087388E-1,2.8380218E0,1.14297085E-1,4.8609877E0,4.1724706E-1,-4.3616366E-1,3.0738614E0,5.5705535E-1,1.7393053E-1,6.0437727E-1,2.338925E-1,-7.6486135E-1,3.2306457E-1,-4.152615E-2,-5.0551647E-1,1.3905277E0,2.0783147E-2,2.9453213E0,-2.799481E-1,-1.8011878E-1,-5.693477E-1,2.9453213E0,1.727678E-2,-2.8515074E-2,6.686356E-2,-9.117945E-2,-2.4357703E-2,3.0840296E-2,-4.8099514E-2,5.660972E-2,1.300611E-1,3.8480744E-2,-8.463347E-2,-3.0694852E-2,1.2384813E-1,2.2558753E-1,7.994832E-3,-1.0939505E-1,-5.4624606E-2,-1.9184774E-2,5.2928872E-2,5.117414E-2,8.864853E-2,6.374814E-2,4.2698186E-2,8.659854E-2,2.5062725E-2,1.5377717E-1,-1.5305947E-2,4.7387283E-2,8.032595E-2,1.2098036E-1,7.5742E-2,3.9495837E-2,6.112575E-2,4.704853E-2,9.294935E-2,-1.0289224E-1,7.5905405E-2,9.2666194E-2,-8.792278E-2,9.30329E-2,1.1723863E-1,1.0872691E-1,4.6909582E-2,9.522381E-2,4.2069796E-2,6.6211864E-2,-7.727933E-2,-6.361776E-2,9.673447E-2,5.3923767E-2,1.0410893E-1,1.1839914E-1,6.593798E-2],"split_indices":[26,6,3,1,28,1,0,31,7,31,7,0,2,6,2,20,5,12,1,11,6,3,3,42,7,0,5,6,3,3,3,23,5,5,6,28,4,46,0,21,1,4,36,4,6,7,6,8,3,3,5,2,0,40,4,9,2,40,0,0,0,0,0,0,0,0,0,0,0,0,0,0,0,0,0,0,0,0,0,0,0,0,0,0,0,0,0,0,0,0,0,0,0,0,0,0,0,0,0,0,0,0,0,0,0,0,0,0,0,0,0],"split_type":[0,0,0,0,0,0,0,0,0,0,0,0,0,0,0,0,0,0,0,0,0,0,0,0,0,0,0,0,0,0,0,0,0,0,0,0,0,0,0,0,0,0,0,0,0,0,0,0,0,0,0,0,0,0,0,0,0,0,0,0,0,0,0,0,0,0,0,0,0,0,0,0,0,0,0,0,0,0,0,0,0,0,0,0,0,0,0,0,0,0,0,0,0,0,0,0,0,0,0,0,0,0,0,0,0,0,0,0,0,0,0],"sum_hessian":[2.974896E4,2.8539713E4,1.2092479E3,2.7359026E3,2.580381E4,8.873973E2,3.218506E2,1.7455637E3,9.9033887E2,2.3983941E4,1.8198677E3,1.9637604E2,6.9102124E2,2.6045828E2,6.13923E1,1.716644E3,2.8919628E1,7.9535223E2,1.9498668E2,2.2231162E4,1.7527808E3,6.675998E2,1.152268E3,6.392631E1,1.3244972E2,1.0968102E0,6.8992444E2,1.1879254E2,1.4166576E2,5.9256477E1,2.1358202E0,1.6501025E3,6.654156E1,9.75853E0,1.9161098E1,7.851093E2,1.0242872E1,1.9302307E2,1.9635984E0,2.0856363E4,1.3747983E3,1.4511959E3,3.0158478E2,1.9376226E1,6.482236E2,8.717455E1,1.0650934E3,6.1392326E1,2.5339842E0,1.3295065E1,1.19154655E2,6.88833E2,1.0914092E0,7.952729E1,3.926525E1,9.048206E0,1.3261755E2,5.820862E1,1.047858E0,1.0757105E0,1.0601095E0,1.5889559E3,6.114656E1,3.5181152E1,3.1360403E1,6.6201296E0,3.1384003E0,1.643713E1,2.7239673E0,7.6816455E2,1.6944801E1,7.846883E0,2.3959892E0,1.7988979E2,1.3133281E1,1.9111531E4,1.744831E3,1.0004369E3,3.7436142E2,1.1437593E3,3.0743668E2,2.6969742E2,3.188736E1,1.7833984E1,1.5422415E0,9.6047005E1,5.521766E2,3.4401386E1,5.2773167E1,2.3098735E2,8.34106E2,1.27066765E1,4.868565E1,1.2174625E0,1.3165215E0,1.1442404E1,1.8526616E0,5.6180393E1,6.2974262E1,6.8592065E2,2.9123569E0,6.99581E1,9.569188E0,3.8194347E1,1.0709047E0,2.7422376E0,6.305969E0,8.896096E0,1.2372146E2,5.2207592E1,6.0010295E0],"tree_param":{"num_deleted":"0","num_feature":"55","num_nodes":"111","size_leaf_vector":"1"}},{"base_weights":[-6.1843107E-3,5.9837095E-2,-6.1213267E-1,9.3309976E-2,-1.12442076E-1,-3.8998237E-1,-7.8839046E-1,5.26724E-2,9.8909616E-1,-4.3505365E-1,7.877699E-1,5.512961E-1,-8.009454E-1,8.322198E-2,-1.1090142E0,1.0221537E0,9.046685E-1,-4.8412386E-1,7.4133736E-1,1.8140728E0,5.385524E-1,1.3761791E0,-1.0593655E-1,-8.198551E-1,-2.7384447E-2,1.14115484E-1,-9.709432E-1,-9.1743755E-1,-1.1568735E0,5.508975E-1,1.0285811E0,-1.7005911E-2,9.1052675E-1,-5.5895066E-1,3.8847405E-1,-2.4287666E-1,9.0877265E-1,2.3520567E0,9.019022E-3,8.89328E-2,9.2744255E-1,1.4751318E-1,2.5678965E-1,-8.351424E-1,6.100746E-2,2.8301504E-1,-5.161232E-1,1.4760643E-2,-9.464926E-2,-1.0348713E-1,-7.487672E-2,8.899641E-3,-9.302539E-2,-1.188478E-1,-1.06645755E-1,7.849453E-2,-6.6951305E-2,1.8511979E-2,1.0296637E-1,9.259018E-2,4.44784E-2,-6.1928965E-2,6.442293E-2,3.1625733E-2,1.3354711E-1,8.437336E-2,-6.1954398E-2,4.9157362E-2,1.5993044E-1,2.7251938E-1,1.0558333E-1,3.7387412E-2,-8.081401E-2,-2.38054E-2,1.22403085E-1,-7.8896046E-2,1.5144531E-1,-8.484214E-2,1.8815644E-2,3.265881E-2,-6.612631E-2,-4.0872786E-2,6.2944725E-2,2.278034E-2,-8.9600824E-2],"categories":[],"categories_nodes":[],"categories_segments":[],"categories_sizes":[],"default_left":[0,0,0,0,0,0,0,0,0,0,0,0,0,0,0,0,0,0,0,0,0,0,0,0,0,0,0,0,0,0,0,0,0,0,0,0,0,0,0,0,0,0,0,0,0,0,0,0,0,0,0,0,0,0,0,0,0,0,0,0,0,0,0,0,0,0,0,0,0,0,0,0,0,0,0,0,0,0,0,0,0,0,0,0,0],"id":15,"left_children":[1,3,5,7,-1,9,11,13,15,17,19,21,23,25,27,29,31,33,35,37,39,41,-1,43,45,47,49,51,53,55,57,-1,59,61,63,65,67,69,-1,71,73,75,-1,77,79,81,83,-1,-1,-1,-1,-1,-1,-1,-1,-1,-1,-1,-1,-1,-1,-1,-1,-1,-1,-1,-1,-1,-1,-1,-1,-1,-1,-1,-1,-1,-1,-1,-1,-1,-1,-1,-1,-1,-1],"loss_changes":[1.176181E3,1.0510514E3,1.1279822E2,9.3855505E2,0E0,6.8284164E1,2.7515991E1,8.754719E2,2.1982422E0,7.155684E1,1.1180243E1,2.210118E1,2.3311096E1,7.82858E2,4.734253E0,1.845459E0,2.1917725E0,7.756412E1,8.424479E0,8.009163E0,6.8533344E0,1.5303276E1,0E0,2.101831E1,6.0773497E0,8.2960864E2,8.946228E0,1.7748413E0,1.6680908E-1,4.2012157E0,5.256958E-1,0E0,1.8934937E0,7.963693E1,6.016388E0,3.8080428E0,1.1531254E1,3.7113953E-1,0E0,5.28735E0,7.6070976E0,9.303381E0,0E0,2.095752E1,5.4898067E0,6.1422276E0,4.595923E0,0E0,0E0,0E0,0E0,0E0,0E0,0E0,0E0,0E0,0E0,0E0,0E0,0E0,0E0,0E0,0E0,0E0,0E0,0E0,0E0,0E0,0E0,0E0,0E0,0E0,0E0,0E0,0E0,0E0,0E0,0E0,0E0,0E0,0E0,0E0,0E0,0E0,0E0],"parents":[2147483647,0,0,1,1,2,2,3,3,5,5,6,6,7,7,8,8,9,9,10,10,11,11,12,12,13,13,14,14,15,15,16,16,17,17,18,18,19,19,20,20,21,21,23,23,24,24,25,25,26,26,27,27,28,28,29,29,30,30,32,32,33,33,34,34,35,35,36,36,37,37,39,39,40,40,41,41,43,43,44,44,45,45,46,46],"right_children":[2,4,6,8,-1,10,12,14,16,18,20,22,24,26,28,30,32,34,36,38,40,42,-1,44,46,48,50,52,54,56,58,-1,60,62,64,66,68,70,-1,72,74,76,-1,78,80,82,84,-1,-1,-1,-1,-1,-1,-1,-1,-1,-1,-1,-1,-1,-1,-1,-1,-1,-1,-1,-1,-1,-1,-1,-1,-1,-1,-1,-1,-1,-1,-1,-1,-1,-1,-1,-1,-1,-1],"split_conditions":[9.2305195E-1,4.7568994E0,2.287843E0,4.81745E0,-1.12442076E-1,4.8231244E0,-1.0000104E0,5.323133E0,7.260333E-1,4.8541646E0,-6.255197E-1,2.5546443E0,4.78086E0,4.968897E0,-7.568277E-1,-1.3002399E0,-1.434565E0,4.78086E0,1.1659095E0,5.492041E-1,2.9564865E-2,2.3912646E-1,-1.0593655E-1,4.86304E0,1.2491665E-1,4.902856E0,-3.116508E-2,-6.157883E-1,1.2571259E0,7.5333846E-1,-1.4458948E0,-1.7005911E-2,-3.7298647E-1,4.8575726E0,1.1727239E0,-6.9925904E-1,5.2109283E-1,1.808969E0,9.019022E-3,3.2331935E-1,1.1659095E0,-4.251912E-1,2.5678965E-1,4.8575726E0,7.8011507E-1,-3.2735968E-1,-3.4155813E-1,1.4760643E-2,-9.464926E-2,-1.0348713E-1,-7.487672E-2,8.899641E-3,-9.302539E-2,-1.188478E-1,-1.06645755E-1,7.849453E-2,-6.6951305E-2,1.8511979E-2,1.0296637E-1,9.259018E-2,4.44784E-2,-6.1928965E-2,6.442293E-2,3.1625733E-2,1.3354711E-1,8.437336E-2,-6.1954398E-2,4.9157362E-2,1.5993044E-1,2.7251938E-1,1.0558333E-1,3.7387412E-2,-8.081401E-2,-2.38054E-2,1.22403085E-1,-7.8896046E-2,1.5144531E-1,-8.484214E-2,1.8815644E-2,3.265881E-2,-6.612631E-2,-4.0872786E-2,6.2944725E-2,2.278034E-2,-8.9600824E-2],"split_indices":[4,16,4,26,0,12,0,24,3,14,5,4,22,32,6,1,8,22,4,8,8,2,0,31,6,35,2,0,0,6,2,0,4,11,1,8,9,4,0,5,4,1,0,11,8,1,2,0,0,0,0,0,0,0,0,0,0,0,0,0,0,0,0,0,0,0,0,0,0,0,0,0,0,0,0,0,0,0,0,0,0,0,0,0,0],"split_type":[0,0,0,0,0,0,0,0,0,0,0,0,0,0,0,0,0,0,0,0,0,0,0,0,0,0,0,0,0,0,0,0,0,0,0,0,0,0,0,0,0,0,0,0,0,0,0,0,0,0,0,0,0,0,0,0,0,0,0,0,0,0,0,0,0,0,0,0,0,0,0,0,0,0,0,0,0,0,0,0,0,0,0,0,0],"sum_hessian":[2.9398525E4,2.6510916E4,2.887609E3,2.5783082E4,7.2783405E2,1.2789147E3,1.6086943E3,2.4665197E4,1.1178845E3,1.2323833E3,4.653132E1,1.4537549E1,1.5941567E3,2.4034088E4,6.311107E2,7.9535657E2,3.225279E2,1.1836008E3,4.878247E1,7.8646855E0,3.8666634E1,9.710171E0,4.827378E0,1.5560591E3,3.8097645E1,2.3350662E4,6.834257E2,1.3018018E2,5.0093057E2,1.1868497E1,7.834881E2,1.5965784E0,3.209313E2,1.0904521E3,9.3148735E1,7.026847E0,4.1755623E1,5.7163496E0,2.1483357E0,1.8502941E1,2.0163692E1,5.3342834E0,4.375888E0,1.5295656E3,2.6493567E1,2.3557274E1,1.4540371E1,2.2636719E4,7.139415E2,5.278784E2,1.5554729E2,1.5621754E0,1.2861801E2,3.6218527E2,1.387453E2,1.0258049E1,1.610448E0,1.2247257E0,7.8226337E2,3.0971887E2,1.1212428E1,1.03884E3,5.1612114E1,8.778809E1,5.360644E0,1.489613E0,5.537234E0,2.7096556E1,1.4659068E1,3.5826275E0,2.133722E0,1.4485178E1,4.0177636E0,4.130301E0,1.6033392E1,3.416505E0,1.9177783E0,1.5101399E3,1.9425625E1,1.9771404E1,6.7221622E0,7.8009024E0,1.57563715E1,5.0504465E0,9.489924E0],"tree_param":{"num_deleted":"0","num_feature":"55","num_nodes":"85","size_leaf_vector":"1"}},{"base_weights":[-6.0854238E-3,-4.2603325E-2,9.531179E-1,-6.576724E-1,1.1990189E-2,9.8537034E-1,8.629413E-1,-8.639579E-1,-4.6560028E-1,4.4266533E-2,-8.5308903E-1,8.7927085E-1,1.0145836E0,8.186661E-1,1.0352542E0,-8.8252324E-1,1.22689776E-1,-8.3860743E-1,-3.1022766E-1,7.781481E-2,-8.6036223E-1,-6.161972E-1,-8.945761E-1,7.0955276E-1,9.56053E-1,-4.632996E-3,1.0165402E0,7.13432E-1,9.0185595E-1,1.0636977E0,1.8738052E-2,-8.9478296E-1,2.628725E-1,9.2612195E-1,-3.4239745E-1,-8.731334E-1,8.310541E-1,-3.2670237E-2,-5.6667274E-1,1.1005657E-1,-9.3520516E-1,-8.2347125E-1,-1.0410205E0,-4.5269868E-1,-9.7799635E-1,-9.2531765E-1,-7.1078795E-1,8.44647E-1,3.6440435E-1,6.266384E-1,1.0141013E0,1.0177552E0,1.51221445E-2,8.09312E-1,5.052732E-1,3.7250444E-1,9.357505E-1,1.107381E0,5.7449305E-1,-8.26495E-2,-1.0779499E-1,4.758407E-2,-4.834039E-2,-6.687208E-2,1.3310865E-1,-6.060208E-2,7.786303E-2,-8.959081E-2,7.853277E-3,1.15554824E-1,-3.7231848E-2,1.11015355E-2,-5.6850858E-2,-6.805968E-2,4.7737446E-2,1.4618802E-2,-8.7767154E-2,-7.803467E-2,-1.03065334E-1,-7.147393E-2,-8.951839E-2,-2.0185607E-2,-1.05274275E-1,-9.786872E-3,-6.399524E-2,-2.6986584E-2,-1.0538037E-1,8.7307714E-4,-9.289048E-2,8.663107E-2,-7.32549E-2,8.012185E-3,8.767052E-2,6.0539406E-2,-8.32455E-2,7.9560705E-2,-2.2788914E-2,1.06505744E-1,6.392787E-2,1.01992406E-1,3.9068844E-2,8.7073654E-2,3.333766E-2,5.7685178E-2,-5.360634E-2,-4.9852993E-2,1.0142865E-1,4.5452576E-2,9.672751E-2,1.1440158E-1,4.5877215E-2,9.652014E-2,-2.743785E-2],"categories":[],"categories_nodes":[],"categories_segments":[],"categories_sizes":[],"default_left":[0,0,0,0,0,0,0,0,0,0,0,0,0,0,0,0,0,0,0,0,0,0,0,0,0,0,0,0,0,0,0,0,0,0,0,0,0,0,0,0,0,0,0,0,0,0,0,0,0,0,0,0,0,0,0,0,0,0,0,0,0,0,0,0,0,0,0,0,0,0,0,0,0,0,0,0,0,0,0,0,0,0,0,0,0,0,0,0,0,0,0,0,0,0,0,0,0,0,0,0,0,0,0,0,0,0,0,0,0,0,0,0,0],"id":16,"left_children":[1,3,5,7,9,11,13,15,17,19,21,23,25,27,29,31,33,35,37,39,41,43,45,47,49,-1,51,53,55,57,-1,59,61,63,65,67,69,71,73,75,77,79,81,83,85,87,89,91,93,95,97,99,-1,101,103,105,107,109,111,-1,-1,-1,-1,-1,-1,-1,-1,-1,-1,-1,-1,-1,-1,-1,-1,-1,-1,-1,-1,-1,-1,-1,-1,-1,-1,-1,-1,-1,-1,-1,-1,-1,-1,-1,-1,-1,-1,-1,-1,-1,-1,-1,-1,-1,-1,-1,-1,-1,-1,-1,-1,-1,-1],"loss_changes":[1.0205169E3,9.4241614E2,2.2572632E0,9.025348E1,7.198161E2,1.5253906E0,1.3613434E0,2.0294617E1,6.853281E1,7.543025E2,8.561829E0,1.613678E0,1.3031006E0,1.4149628E0,1.1368904E0,1.54262085E1,8.250566E0,2.0813065E1,5.9738968E1,7.8282117E2,5.066162E0,7.9218063E0,3.7879639E0,2.4276447E0,1.6251602E0,0E0,4.810791E-1,1.7584305E0,1.9395676E0,5.0484467E-1,0E0,1.2499817E1,2.1736681E0,6.0919456E0,4.6616607E0,7.4803467E0,3.386971E0,3.1186348E1,5.2220367E1,8.290265E2,1.0123413E1,5.152466E0,1.2328491E0,6.5321083E0,2.0319672E0,2.2556152E0,4.6522903E0,9.4454E-1,5.7711983E0,3.1165643E0,1.2079468E0,4.2163086E-1,0E0,1.8346481E0,3.0602217E0,5.7244444E0,1.3685837E0,6.142731E-1,2.405712E0,0E0,0E0,0E0,0E0,0E0,0E0,0E0,0E0,0E0,0E0,0E0,0E0,0E0,0E0,0E0,0E0,0E0,0E0,0E0,0E0,0E0,0E0,0E0,0E0,0E0,0E0,0E0,0E0,0E0,0E0,0E0,0E0,0E0,0E0,0E0,0E0,0E0,0E0,0E0,0E0,0E0,0E0,0E0,0E0,0E0,0E0,0E0,0E0,0E0,0E0,0E0,0E0,0E0,0E0],"parents":[2147483647,0,0,1,1,2,2,3,3,4,4,5,5,6,6,7,7,8,8,9,9,10,10,11,11,12,12,13,13,14,14,15,15,16,16,17,17,18,18,19,19,20,20,21,21,22,22,23,23,24,24,26,26,27,27,28,28,29,29,31,31,32,32,33,33,34,34,35,35,36,36,37,37,38,38,39,39,40,40,41,41,42,42,43,43,44,44,45,45,46,46,47,47,48,48,49,49,50,50,51,51,53,53,54,54,55,55,56,56,57,57,58,58],"right_children":[2,4,6,8,10,12,14,16,18,20,22,24,26,28,30,32,34,36,38,40,42,44,46,48,50,-1,52,54,56,58,-1,60,62,64,66,68,70,72,74,76,78,80,82,84,86,88,90,92,94,96,98,100,-1,102,104,106,108,110,112,-1,-1,-1,-1,-1,-1,-1,-1,-1,-1,-1,-1,-1,-1,-1,-1,-1,-1,-1,-1,-1,-1,-1,-1,-1,-1,-1,-1,-1,-1,-1,-1,-1,-1,-1,-1,-1,-1,-1,-1,-1,-1,-1,-1,-1,-1,-1,-1,-1,-1,-1,-1,-1,-1],"split_conditions":[4.81745E0,-8.103892E-1,7.7208686E-1,-1.0339208E0,4.8258014E0,-1.262615E-1,-5.673999E-1,4.8541646E0,-6.531089E-1,5.012365E0,-4.688427E-1,-6.271738E-1,-1.3231983E0,8.2323796E-1,7.4520063E-1,4.86304E0,-4.6753675E-1,4.8572316E0,-4.228351E-1,4.902856E0,-4.5422405E-1,6.713231E-2,8.7757474E-1,-8.047875E-1,-4.9213973E-1,-4.632996E-3,3.2979755E0,7.314422E-1,8.25816E-1,2.9453213E0,1.8738052E-2,5.1706333E0,-1.749991E-1,-6.1361176E-1,1.760934E0,4.86304E0,1.13684975E-1,2.222853E0,1.0966327E0,4.8088083E0,-4.6909925E-1,-3.2881725E-1,-1.0774015E0,-4.6909875E-1,-5.693477E-1,-1.0000104E0,-9.7413486E-1,-1.2870739E0,-2.0778778E-1,-3.001276E-2,2.752341E0,1.3905277E0,1.51221445E-2,2.9453213E0,-4.164272E-1,1.2543713E-1,-5.693477E-1,3.6986036E0,8.324539E-2,-8.26495E-2,-1.0779499E-1,4.758407E-2,-4.834039E-2,-6.687208E-2,1.3310865E-1,-6.060208E-2,7.786303E-2,-8.959081E-2,7.853277E-3,1.15554824E-1,-3.7231848E-2,1.11015355E-2,-5.6850858E-2,-6.805968E-2,4.7737446E-2,1.4618802E-2,-8.7767154E-2,-7.803467E-2,-1.03065334E-1,-7.147393E-2,-8.951839E-2,-2.0185607E-2,-1.05274275E-1,-9.786872E-3,-6.399524E-2,-2.6986584E-2,-1.0538037E-1,8.7307714E-4,-9.289048E-2,8.663107E-2,-7.32549E-2,8.012185E-3,8.767052E-2,6.0539406E-2,-8.32455E-2,7.9560705E-2,-2.2788914E-2,1.06505744E-1,6.392787E-2,1.01992406E-1,3.9068844E-2,8.7073654E-2,3.333766E-2,5.7685178E-2,-5.360634E-2,-4.9852993E-2,1.0142865E-1,4.5452576E-2,9.672751E-2,1.1440158E-1,4.5877215E-2,9.652014E-2,-2.743785E-2],"split_indices":[26,6,3,1,19,1,0,20,2,29,4,0,2,6,2,31,4,28,7,35,4,7,9,0,7,0,5,6,3,40,0,25,5,2,0,31,9,4,1,23,4,7,1,4,2,0,1,8,1,3,39,2,0,40,4,9,2,45,8,0,0,0,0,0,0,0,0,0,0,0,0,0,0,0,0,0,0,0,0,0,0,0,0,0,0,0,0,0,0,0,0,0,0,0,0,0,0,0,0,0,0,0,0,0,0,0,0,0,0,0,0,0,0],"split_type":[0,0,0,0,0,0,0,0,0,0,0,0,0,0,0,0,0,0,0,0,0,0,0,0,0,0,0,0,0,0,0,0,0,0,0,0,0,0,0,0,0,0,0,0,0,0,0,0,0,0,0,0,0,0,0,0,0,0,0,0,0,0,0,0,0,0,0,0,0,0,0,0,0,0,0,0,0,0,0,0,0,0,0,0,0,0,0,0,0,0,0,0,0,0,0,0,0,0,0,0,0,0,0,0,0,0,0,0,0,0,0,0,0],"sum_hessian":[2.913208E4,2.8064588E4,1.0674933E3,2.2870342E3,2.5777553E4,7.7896344E2,2.8852988E2,1.1010299E3,1.1860044E3,2.4851293E4,9.262598E2,1.7488788E2,6.0407556E2,2.3412366E2,5.4406223E1,1.0807985E3,2.023143E1,3.4745728E2,8.385472E2,2.3963518E4,8.877761E2,1.4040376E2,7.85856E2,5.7665707E1,1.1722218E2,1.0702682E0,6.030053E2,1.0759427E2,1.2652939E2,5.2394024E1,2.012198E0,1.0695691E3,1.1229322E1,7.054165E0,1.3177265E1,3.4088535E2,6.5719204E0,4.0323856E2,4.3530862E2,2.322521E4,7.3830615E2,7.4184686E2,1.4592924E2,9.825374E1,4.215003E1,6.6978827E2,1.1606777E2,4.040401E1,1.7261696E1,1.9328878E1,9.78933E1,6.019839E2,1.0214031E0,7.1686714E1,3.590755E1,8.335705E0,1.1819368E2,4.6939003E1,5.455024E0,7.831198E2,2.8644928E2,9.018152E0,2.2111704E0,1.29659E0,5.7575746E0,1.1040389E1,2.136876E0,3.3297537E2,7.909967E0,5.2074523E0,1.3644677E0,3.185988E2,8.463976E1,3.9279572E2,4.2512882E1,2.2406428E4,8.187832E2,2.8503363E2,4.5327252E2,2.9918454E2,4.4266235E2,2.2614052E0,1.4366783E2,3.4466084E1,6.3787655E1,4.5168777E0,3.7633152E1,2.556943E0,6.672313E2,1.0515003E0,1.1501627E2,1.7668707E0,3.863714E1,1.4779915E1,2.4817805E0,1.6195448E1,3.1334295E0,8.455656E1,1.3336743E1,5.992846E2,2.699296E0,6.275764E1,8.929073E0,3.401547E1,1.8920819E0,3.6309483E0,4.7047567E0,8.21467E0,1.0997901E2,4.370656E1,3.2324438E0,3.6417859E0,1.8132379E0],"tree_param":{"num_deleted":"0","num_feature":"55","num_nodes":"113","size_leaf_vector":"1"}},{"base_weights":[-5.948558E-3,-3.3002368E-1,9.095454E-2,-8.0486417E-1,-2.1013395E-1,1.3209127E-1,-6.6036874E-1,-8.37027E-1,5.149758E-1,-1.4582819E-1,-1.0955608E-1,1.6422358E-1,-9.514472E-1,-7.692023E-1,-4.821752E-1,-8.6719507E-1,3.255904E-2,1.1971065E-1,8.340732E-1,-9.105647E-2,-1.0486912E0,2.0029935E-1,-8.0737853E-1,-1.03716E0,-7.5471973E-1,-6.1122376E-1,-9.7049016E-1,-3.9612517E-2,-6.211963E-1,-8.8724583E-1,2.3819469E-2,-2.764275E-1,7.7185225E-1,3.8105744E-1,-6.294967E-1,1.2832197E0,3.8370326E-2,-9.551968E-3,-7.152783E-1,-9.100685E-1,-1.0954225E-1,2.3814705E-1,-8.077854E-1,-5.25216E-1,-8.5219026E-1,1.5323353E-2,-1.0414255E0,-8.9808905E-1,-4.5023048E-1,-8.222969E-1,-4.558636E-1,-9.1409254E-1,-1.1620058E0,-4.454111E-1,2.3595837E-1,-4.690585E-1,-8.547981E-1,-8.9840524E-2,4.135963E-2,-8.6954944E-2,1.8525807E-2,3.0571047E-2,-5.0940335E-2,1.20831884E-1,-3.2591984E-2,1.2386473E-1,-1.2831382E-2,2.3623575E-2,-1.2651592E-1,1.3136372E-2,1.4093688E-1,-6.974131E-2,6.1395325E-2,3.3644754E-3,-1.0985756E-1,-7.388563E-2,4.2267572E-2,-9.078707E-3,-9.311794E-2,2.8482273E-2,-5.625173E-2,-1.0186168E-1,-7.7929154E-2,-3.0757217E-2,-8.830323E-2,-8.7064505E-2,-4.8325475E-2,-1.0493993E-1,-6.1430097E-2,-1.764544E-2,-9.100359E-2,9.315899E-3,-6.9472834E-2,-6.8482235E-2,-1.1101677E-1,-5.2929502E-2,9.264227E-3,-9.2916265E-2,7.3991427E-3,-2.5024677E-2,-1.17486194E-1,-6.9850475E-2,7.813885E-2,3.961942E-2,-6.0199708E-2,-5.7395425E-2,3.2442115E-4,-6.884586E-2,-1.0544329E-1],"categories":[],"categories_nodes":[],"categories_segments":[],"categories_sizes":[],"default_left":[0,0,0,0,0,0,0,0,0,0,0,0,0,0,0,0,0,0,0,0,0,0,0,0,0,0,0,0,0,0,0,0,0,0,0,0,0,0,0,0,0,0,0,0,0,0,0,0,0,0,0,0,0,0,0,0,0,0,0,0,0,0,0,0,0,0,0,0,0,0,0,0,0,0,0,0,0,0,0,0,0,0,0,0,0,0,0,0,0,0,0,0,0,0,0,0,0,0,0,0,0,0,0,0,0,0,0,0,0],"id":17,"left_children":[1,3,5,7,9,11,13,15,17,19,-1,21,23,25,27,29,31,33,35,37,39,41,43,45,47,49,51,53,55,57,59,61,63,65,67,69,71,73,75,77,-1,79,81,83,85,-1,87,89,91,93,95,97,99,101,103,105,107,-1,-1,-1,-1,-1,-1,-1,-1,-1,-1,-1,-1,-1,-1,-1,-1,-1,-1,-1,-1,-1,-1,-1,-1,-1,-1,-1,-1,-1,-1,-1,-1,-1,-1,-1,-1,-1,-1,-1,-1,-1,-1,-1,-1,-1,-1,-1,-1,-1,-1,-1,-1],"loss_changes":[9.068352E2,3.7823206E2,6.8713776E2,5.7296143E1,3.020885E2,7.339685E2,2.2011261E1,3.4344482E1,3.997613E0,2.446936E2,0E0,7.176739E2,9.455322E0,2.2137512E1,2.7064484E1,2.2608154E1,1.0452437E1,3.309852E0,6.3149643E0,2.3749026E2,8.364868E-1,7.532807E2,8.821259E0,2.293396E0,7.799675E0,1.2846924E1,2.3144531E0,1.199385E1,1.1503952E1,1.8320984E1,4.314473E0,4.542861E0,6.850548E0,5.508813E0,2.7378204E0,1.4643269E0,3.5857723E0,1.9432007E2,1.4776794E1,1.2518272E0,0E0,7.1114734E2,3.4983215E0,7.75523E0,3.8753967E0,0E0,7.819519E-1,9.323044E-1,8.323969E0,5.9557114E0,9.493877E0,3.734665E0,4.9640656E-1,1.4003842E1,8.827885E0,1.0161812E1,3.6208878E0,0E0,0E0,0E0,0E0,0E0,0E0,0E0,0E0,0E0,0E0,0E0,0E0,0E0,0E0,0E0,0E0,0E0,0E0,0E0,0E0,0E0,0E0,0E0,0E0,0E0,0E0,0E0,0E0,0E0,0E0,0E0,0E0,0E0,0E0,0E0,0E0,0E0,0E0,0E0,0E0,0E0,0E0,0E0,0E0,0E0,0E0,0E0,0E0,0E0,0E0,0E0,0E0],"parents":[2147483647,0,0,1,1,2,2,3,3,4,4,5,5,6,6,7,7,8,8,9,9,11,11,12,12,13,13,14,14,15,15,16,16,17,17,18,18,19,19,20,20,21,21,22,22,23,23,24,24,25,25,26,26,27,27,28,28,29,29,30,30,31,31,32,32,33,33,34,34,35,35,36,36,37,37,38,38,39,39,41,41,42,42,43,43,44,44,46,46,47,47,48,48,49,49,50,50,51,51,52,52,53,53,54,54,55,55,56,56],"right_children":[2,4,6,8,10,12,14,16,18,20,-1,22,24,26,28,30,32,34,36,38,40,42,44,46,48,50,52,54,56,58,60,62,64,66,68,70,72,74,76,78,-1,80,82,84,86,-1,88,90,92,94,96,98,100,102,104,106,108,-1,-1,-1,-1,-1,-1,-1,-1,-1,-1,-1,-1,-1,-1,-1,-1,-1,-1,-1,-1,-1,-1,-1,-1,-1,-1,-1,-1,-1,-1,-1,-1,-1,-1,-1,-1,-1,-1,-1,-1,-1,-1,-1,-1,-1,-1,-1,-1,-1,-1,-1,-1],"split_conditions":[-7.080196E-2,-1.2241488E0,4.9721746E0,4.86304E0,4.7568994E0,4.968897E0,7.3666364E-1,4.8541646E0,4.7125658E-1,5.323133E0,-1.0955608E-1,4.8258014E0,2.86805E-1,6.569529E-1,6.914931E-1,4.78086E0,1.157084E0,-2.3093282E-1,-3.3319873E-1,2.222853E0,-9.69558E-1,5.012365E0,-4.690144E-1,-5.254489E-1,-3.116508E-2,4.0687272E-1,5.877332E-1,9.7706085E-1,1.1405153E0,4.8231244E0,-4.69038E-1,-1.2068462E0,-4.3045136E-1,-1.4897001E0,-1.3765408E-1,-5.078292E-1,-4.6663374E-1,5.1706333E0,4.907767E0,-2.9130167E-1,-1.0954225E-1,5.04132E0,-4.9466917E-1,-7.2551385E-2,1.5474473E0,1.5323353E-2,3.6437476E0,-3.0939242E-1,-4.6909153E-1,3.6144254E-1,1.8248332E0,5.5213904E-1,-1.2208201E0,2.0337572E0,5.721426E-1,1.0058188E0,1.3946693E0,-8.9840524E-2,4.135963E-2,-8.6954944E-2,1.8525807E-2,3.0571047E-2,-5.0940335E-2,1.20831884E-1,-3.2591984E-2,1.2386473E-1,-1.2831382E-2,2.3623575E-2,-1.2651592E-1,1.3136372E-2,1.4093688E-1,-6.974131E-2,6.1395325E-2,3.3644754E-3,-1.0985756E-1,-7.388563E-2,4.2267572E-2,-9.078707E-3,-9.311794E-2,2.8482273E-2,-5.625173E-2,-1.0186168E-1,-7.7929154E-2,-3.0757217E-2,-8.830323E-2,-8.7064505E-2,-4.8325475E-2,-1.0493993E-1,-6.1430097E-2,-1.764544E-2,-9.100359E-2,9.315899E-3,-6.9472834E-2,-6.8482235E-2,-1.1101677E-1,-5.2929502E-2,9.264227E-3,-9.2916265E-2,7.3991427E-3,-2.5024677E-2,-1.17486194E-1,-6.9850475E-2,7.813885E-2,3.961942E-2,-6.0199708E-2,-5.7395425E-2,3.2442115E-4,-6.884586E-2,-1.0544329E-1],"split_indices":[6,1,30,31,16,32,6,20,8,24,0,19,1,3,3,22,8,5,3,4,6,29,4,7,2,6,5,1,3,12,4,8,4,9,4,2,4,25,33,0,0,17,2,7,9,0,5,9,4,3,8,5,8,8,7,6,9,0,0,0,0,0,0,0,0,0,0,0,0,0,0,0,0,0,0,0,0,0,0,0,0,0,0,0,0,0,0,0,0,0,0,0,0,0,0,0,0,0,0,0,0,0,0,0,0,0,0,0,0],"split_type":[0,0,0,0,0,0,0,0,0,0,0,0,0,0,0,0,0,0,0,0,0,0,0,0,0,0,0,0,0,0,0,0,0,0,0,0,0,0,0,0,0,0,0,0,0,0,0,0,0,0,0,0,0,0,0,0,0,0,0,0,0,0,0,0,0,0,0,0,0,0,0,0,0,0,0,0,0,0,0,0,0,0,0,0,0,0,0,0,0,0,0,0,0,0,0,0,0,0,0,0,0,0,0,0,0,0,0,0,0],"sum_hessian":[2.8874576E4,6.645956E3,2.222862E4,1.3385847E3,5.307371E3,2.107551E4,1.15311E3,1.3070983E3,3.14865E1,4.9490986E3,3.582728E2,2.046934E4,6.0616925E2,7.138201E2,4.3928983E2,1.2632749E3,4.3823364E1,1.4678916E1,1.6807583E1,4.6670737E3,2.8202472E2,1.9737285E4,7.3205536E2,4.1923804E2,1.8693126E2,4.021969E2,3.1162326E2,1.0531448E2,3.3397534E2,1.2354768E3,2.7798086E1,3.1347721E1,1.2475644E1,1.1247E1,3.4319165E0,1.0351714E1,6.4558687E0,4.12897E3,5.3810345E2,7.626592E1,2.057588E2,1.9023814E4,7.134694E2,1.02071236E2,6.2998413E2,1.3721721E0,4.1786584E2,1.2576505E2,6.11662E1,1.687031E2,2.334938E2,